,0,1,2,3,4,5,6,7,8,9,10,11,12,13,14,15,16,17,18,19,20,21,22,23,24,25,26,27,28,29,30,31,32,33,34,35,36,37,38,39,40,41,42,43,44,45,46,47,48,49,50,51,52,53,54,55,56,57,58,59,60,61,62,63,64,65,66,67,68,69,70,71,72,73,74,75,76,77,78,79,80,81,82,83,84,85,86,87,88,89,90,91,92,93,94,95,96,97,98,99,100,101,102,103,104,105,106,107,108,109,110,111,112,113,114,115,116,117,118,119,120,121,122,123,124,125,126,127
user1,0.0010556913912296295,1.8601031115395017e-05,0.001219437108375132,0.0009166259551420808,0.0011060736142098904,-0.0036090610083192587,0.0008364623063243926,0.0010578747605904937,2.1353032934712246e-05,-0.0034061160404235125,0.0022676638327538967,-0.002636256394907832,0.000818637665361166,0.0024638392496854067,0.0011867749271914363,0.002001036424189806,0.003094239393249154,-0.0020112069323658943,0.0024295581970363855,6.89213047735393e-05,0.0010897949105128646,-0.0008247013902291656,-0.001305904472246766,-0.00298166461288929,0.0009242060477845371,-0.003415017621591687,-0.002578727202489972,0.0010470657143741846,0.000394120579585433,-0.0021817777305841446,0.002661110134795308,-0.0037115842569619417,0.002765698591247201,-0.0006545654614455998,0.0004687222826760262,0.002102016704156995,0.0027925935573875904,0.0003275210037827492,-0.00315634673461318,0.002727743238210678,-0.002875005127862096,0.00044503118260763586,-0.003130896482616663,0.002879491075873375,0.0021045675966888666,0.0001494780881330371,0.003130101365968585,-0.0008277521701529622,0.0009171073324978352,0.0002692810958251357,0.0005436819046735764,3.0464374503935687e-05,0.0018357073422521353,0.001738297170959413,-0.0017742784693837166,-0.0028406318742781878,0.0004084224347025156,0.0007624209974892437,-0.0004046194371767342,-0.0018968713702633977,-0.0027382359839975834,-0.0003417516709305346,-0.00011093272041762248,-0.0032462847884744406,0.00039376900531351566,-0.0024525125045329332,-0.0016494372393935919,-0.0032678707502782345,0.0016778953140601516,-0.003025622805580497,-0.0007551660528406501,0.00022862316109240055,-0.002083537634462118,-0.00251983804628253,0.0028229665476828814,0.0006738935480825603,-0.000601505336817354,-0.0025818957947194576,-0.003507888177409768,-0.001438527600839734,0.002325905254110694,0.0019223960116505623,0.0004040811618324369,-0.0013873317511752248,-0.003129113931208849,-0.001171242562122643,-0.0014298041351139545,-0.0028768188785761595,-0.001974149141460657,-0.0005016557406634092,-0.0004278259293641895,-0.0017979659605771303,-0.0001997101353481412,0.0015220945933833718,0.0030902023427188396,0.0037350840866565704,-0.0027501380536705256,0.0029420864302664995,-0.0007238516118377447,0.0006783702992834151,0.0029842699877917767,-0.0021629182156175375,-0.0013460519257932901,0.0019415931310504675,0.0032226648181676865,0.0030076317489147186,-0.0018897560657933354,-0.003821267280727625,0.0010105813853442669,-0.00016700549167580903,-0.0011814167955890298,0.00026086167781613767,0.0020976769737899303,0.003769356058910489,0.00300691369920969,0.0006733232294209301,-0.0034479633904993534,-0.0021098656579852104,-0.0005163827445358038,-0.002629593014717102,0.0008079446852207184,0.00112442416138947,-0.003330254228785634,-0.0005707752425223589,0.00044563462142832577,-0.003281261771917343,-0.0004161788965575397,-0.0015205303207039833
user6,0.0038611222989857197,-0.0005428271251730621,-0.000283756700810045,-0.003081065369769931,-0.0009575785952620208,-0.00294169457629323,0.002787449397146702,0.0027971286326646805,-0.003264493541792035,0.0017004795372486115,-0.0037751472555100918,-6.655736797256395e-05,-0.0035808850079774857,0.0004947378183715045,-0.0030808760784566402,-0.003540524747222662,-0.00034972396679222584,-0.0013119266368448734,-0.0020927665755152702,-0.002972510177642107,-0.002157759852707386,-0.0022378230933099985,0.0037613571621477604,-0.0030170511454343796,0.0032603333238512278,-0.0031588308047503233,-0.002934145973995328,0.000501335016451776,0.0025984197854995728,-0.0037096706219017506,0.0006777686649002135,-0.002155427820980549,0.0008106080931611359,-0.0017062366241589189,-0.002243796829134226,-0.001069780089892447,0.0003939027083106339,-0.0017554920632392168,0.002096698386594653,-0.00028112015570513904,0.0032367054373025894,-0.0032699063885957003,0.003282582852989435,-0.003279744880273938,0.003079388989135623,-0.001853328081779182,-0.0028732754290103912,0.002989557571709156,0.003536583622917533,0.0015485931653529406,0.003447683760896325,0.0026302188634872437,0.0020494344644248486,-5.6712648074608296e-05,-0.0005088557954877615,0.0015142310876399279,-0.0015857882099226117,0.00367564894258976,0.002966187195852399,-0.0020521255210042,-0.0005634721019305289,-0.0008369047427549958,-0.0017618584679439664,0.002840953879058361,0.0015166427474468946,0.0020952061749994755,0.0026757880114018917,-0.003893905784934759,0.0019533243030309677,-0.0010042655048891902,-0.0035317735746502876,-0.0011847488349303603,0.0002912663039751351,0.0028721210546791553,0.0032691187225282192,-0.0022609473671764135,-0.002285896334797144,-0.0036686405073851347,0.0031565341632813215,0.0034420632291585207,-0.0030424860306084156,-0.0022237137891352177,-0.00034356536343693733,0.0036727359984070063,0.003745605703443289,0.001093478174880147,-0.0011192585807293653,0.0025872131809592247,0.0026601478457450867,-0.001941436668857932,-0.001690228353254497,-0.000867697992362082,0.0012715472839772701,-0.0016280049458146095,0.0015100627206265926,0.0012369895121082664,-0.00203184993006289,0.00017616682453081012,0.0011499873362481594,-0.0005786499823443592,-0.002737899776548147,0.002858017571270466,-0.0015448321355506778,-0.0023779594339430332,0.002475154586136341,-0.0027163363993167877,-0.0014835335314273834,6.552847480634227e-05,0.001909544924274087,0.001937018008902669,-0.0004286036710254848,0.0002976165560539812,-0.0033037366811186075,0.0003905203484464437,-0.003304294776171446,-0.0032161276321858168,0.0026194406673312187,0.0015575281577184796,-0.0016685851151123643,-0.0019224955467507243,-1.8886334146372974e-05,-0.001880910713225603,0.0027417591772973537,-0.0020174533128738403,0.0030367278959602118,0.003691051620990038,-0.0023432488087564707,0.00010429706890136003
user2,-0.000500103400554508,0.001732058823108673,-0.002956903539597988,-0.0008336332975886762,0.0002760467759799212,-0.0013319113058969378,-0.0011730637634173036,0.0018449722556397319,0.0006355600780807436,0.0019580514635890722,0.0005902319680899382,-0.0038777326699346304,0.0016455546719953418,-0.0032452649902552366,0.0028827476780861616,-0.0032971245236694813,-0.0035263681784272194,0.0023648745846003294,-0.0003208262496627867,-3.0149223675834946e-05,0.000989485066384077,0.0032987885642796755,-0.0010800132295116782,-0.0008725133375264704,-0.002118088537827134,-0.003017708193510771,0.0033423765562474728,0.0026930952444672585,0.001208679168485105,-0.0017796190222725272,-0.001310253283008933,-0.00041238495032303035,-0.002536957385018468,-0.0023223692551255226,-0.0007504919776692986,-0.0030793931800872087,0.0006400254205800593,0.002371258335188031,0.0013850093819200993,-0.0031545055098831654,-0.0028165308758616447,0.0010820234892889857,0.0036112668458372355,0.003780132159590721,-0.0038016648031771183,0.0006732425536029041,-0.0004202126001473516,-9.6215917437803e-05,-0.0017089573666453362,0.0014263379853218794,-0.002560141496360302,0.0031117103062570095,0.001348700257949531,0.0005237548612058163,0.002202439121901989,-0.0029888548888266087,-0.0007936726906336844,0.002792326733469963,-0.002271623583510518,0.0037871331442147493,0.001027287682518363,0.0007035486632958055,-4.293693200452253e-05,0.0009216928738169372,0.0038918943610042334,-0.000871856405865401,0.0031282880809158087,0.001030189567245543,0.001468307338654995,-0.0023290228564292192,-0.0032804724760353565,-0.00010477463365532458,-0.0036057420074939728,-0.0007259594276547432,-0.0025386037304997444,-0.0023931104224175215,0.003541870741173625,0.002825785195454955,-0.0009640789357945323,-0.0024164391215890646,0.00043464615009725094,0.003047980135306716,0.003836187534034252,-0.0009743018308654428,-0.0006318858941085637,3.4800109460775275e-06,0.0011416077613830566,0.0019057560712099075,0.003915111068636179,-0.001000271295197308,1.8813530914485455e-05,0.002410284010693431,0.0028612171299755573,-0.0020364117808640003,0.0031290589831769466,-0.0015316694043576717,-0.0021367142908275127,2.8655220376094803e-05,2.4212829430325655e-06,0.0029996156226843596,0.0028672791086137295,0.0019457765156403184,0.003082128008827567,0.001504302374087274,-0.0020256920251995325,-0.0024521443992853165,-0.0009263938991352916,0.0011421343078836799,-0.0023899890948086977,-0.0019055360462516546,0.0015330985188484192,-0.0002549795026425272,0.0017709177918732166,-0.0010139861842617393,-0.0005620672018267214,-0.0011014282936230302,0.0023671314120292664,-0.0018340784590691328,0.0021856774110347033,0.0015594972064718604,-0.0023898896761238575,0.0007301621371880174,-0.00028859946178272367,0.001739390892907977,-0.002306905575096607,0.0033339690417051315,-0.003557080402970314,0.001528572989627719
user5,-0.0029046882409602404,-0.00019860001339111477,0.002049840986728668,-0.0019038562895730138,0.0007788877701386809,0.0038874796591699123,0.0029872243758291006,-0.0007818408776074648,0.000987219507806003,-0.0012797772651538253,-0.003844849532470107,0.0005784507957287133,-0.002963749226182699,-0.0003723429108504206,0.0013097148621454835,-0.0009502595639787614,-0.0009385230951011181,-0.0005768206319771707,-0.00250955275259912,-0.002774217166006565,0.002400327706709504,-0.0009758714004419744,0.001916702138260007,0.0036895868834108114,0.0010280224960297346,0.0009260693332180381,0.0011908994056284428,0.0034564125817269087,0.0029489006847143173,-0.0035199886187911034,-0.0023645604960620403,-0.00368990795686841,0.000461324118077755,0.0020267439540475607,-0.0014474284835159779,0.0033219626639038324,-0.0031654788181185722,1.2835983397962991e-05,5.504872660822002e-06,0.0032560417894273996,0.002214377047494054,0.0004138232325203717,0.002532924059778452,-0.001383572001941502,-0.0007250645430758595,0.0009322428377345204,-0.00122902262955904,-0.0028134651947766542,-0.0017250762321054935,0.0036323622334748507,0.00019424513448029757,-0.0037680522073060274,0.0012716136407107115,-0.0021273777820169926,-0.0011265870416536927,0.0035578631795942783,0.0034956978633999825,-0.00230163405649364,0.0007921312935650349,0.0013901899801567197,-0.001954391598701477,0.003605640260502696,0.0030453421641141176,0.001675213105045259,-0.0017016177298501134,0.002706026891246438,-0.0025773141533136368,-0.0027048131451010704,-0.0017659771256148815,-0.0018765315180644393,-0.0014062601840123534,0.0037506562657654285,0.0010201407130807638,0.0023393479641526937,0.0015564006753265858,0.0028205409180372953,-0.0002252540725748986,-0.0010894499719142914,-0.00021096713317092508,0.001336876186542213,-0.0035558503586798906,0.0027502381708472967,-0.0021997285075485706,0.001432799268513918,-0.0024261432699859142,-0.0033406519796699286,0.000601506675593555,-0.0038845916278660297,0.003182551823556423,0.002509700134396553,0.002439474454149604,0.0024809492751955986,-0.000898958882316947,5.473248165799305e-06,-0.00025392984389327466,0.0034583117812871933,-0.0008921054541133344,-0.0034773247316479683,0.0011114013614133,0.0037165419198572636,-0.002665637293830514,-0.00013046161620877683,0.0027335942722857,-0.0013432595878839493,-0.00051293516298756,0.0006823476869612932,0.0011691441759467125,-0.0005399648216553032,0.00027148801018483937,-0.0024115461856126785,0.0006666852859780192,0.0020736204460263252,-0.002314013196155429,0.0033348731230944395,-0.0022601152304559946,0.0016967386472970247,-0.0037892453838139772,-0.003684957977384329,-0.0019287571776658297,-0.00327840493991971,0.002340550534427166,0.0005608646897599101,-0.0027561052702367306,0.001819993951357901,0.002237513195723295,0.002739496296271682,-0.0007132641039788723,2.1050476789241657e-05
user3,0.0021677168551832438,-0.0013063516234979033,0.0004087244742549956,0.00100472173653543,-0.0037221978418529034,-0.0006112809060141444,-0.0025419117882847786,0.0009543060441501439,-0.00029480698867700994,-0.0019798153080046177,0.0036901968996971846,-0.001049838843755424,-0.0037003313191235065,6.394474621629342e-05,-0.002132791792973876,-0.0036257596220821142,0.003031296655535698,0.001112850266508758,6.774564099032432e-05,0.0002164496254408732,0.003475055331364274,-0.0011805352987721562,0.0008051613694988191,-0.0012445091269910336,-0.003037956776097417,-0.001140017295256257,0.0016876602312549949,0.00028724639560095966,-0.0017960176337510347,0.0011112074134871364,0.003020952455699444,0.002563095884397626,-0.0009563608327880502,0.0013158357469365,-0.0013666906161233783,0.0032466775737702847,0.002282995730638504,0.0033920297864824533,0.0038760171737521887,0.00285273022018373,0.002236841944977641,-0.0035749529488384724,0.002484603552147746,-0.0028156712651252747,-0.0025470557156950235,0.002139684045687318,0.003549257991835475,0.0036758941132575274,-0.0029828124679625034,0.002594918943941593,0.0004443477955646813,0.0002560293360147625,0.0004643112188205123,-0.0008190698572434485,-0.002323811175301671,-0.0018371699843555689,0.0008010551682673395,0.003115612780675292,-0.0031319025438278913,-0.001319916802458465,-0.00195197609718889,-0.0002188132784795016,0.0017398158088326454,-0.0024315856862813234,-0.0025585603434592485,0.0037111672572791576,0.0032172813080251217,0.0015023519517853856,-0.0034656585194170475,0.002383006503805518,0.0022121707443147898,0.001322570606134832,-0.0013158826623111963,0.00045516848331317306,7.87641474744305e-05,0.0034644007682800293,-0.003479207633063197,-0.0009165704250335693,-0.0014226194471120834,0.0022359376307576895,-0.0005898441886529326,0.0004032541473861784,-0.00025968876434490085,-0.003400923917070031,-0.0008061768021434546,0.0007184657733887434,-0.0034187326673418283,-0.0010851866099983454,-0.001598994480445981,5.121857248013839e-05,0.003451885189861059,-0.0028407538775354624,0.0031052608974277973,0.0011053349589928985,0.0016663306159898639,-0.00022416170395445079,-0.0002686172956600785,0.002524964977055788,0.003267575753852725,-0.0014070399338379502,-0.002872360870242119,0.0024323032703250647,-0.003742120461538434,0.0032720405142754316,0.00015239139611367136,-0.0019886489026248455,-0.00017642142483964562,-0.0004038852348458022,-0.0016449036775156856,0.0026830744463950396,-0.0023432110901921988,0.001240466022863984,-0.003145713359117508,0.0024482347071170807,-0.003263982944190502,0.00127906643319875,0.0029148573521524668,0.0025636646896600723,-0.0003637653717305511,-0.003357427893206477,0.001690539764240384,0.001042125397361815,-0.0028582047671079636,-0.0020226917695254087,0.0036766238044947386,0.002159294206649065,-0.002381916856393218,-0.0033838057424873114
user4,-0.0022051807027310133,0.00016049525584094226,-0.0018066498450934887,0.001043225172907114,-0.002574461977928877,-0.0029874900355935097,0.0031562643125653267,0.0037850725930184126,0.0017495175125077367,0.00284433551132679,-0.00011572786024771631,-0.002686138730496168,0.003191776340827346,0.002291351556777954,0.0022435025312006474,-0.0023205881007015705,0.0036164578050374985,0.0006005486939102411,0.0025783665478229523,0.0009809255134314299,0.001514595584012568,-0.0015295040793716908,-0.00011447865836089477,0.0017714389832690358,-0.0008231307729147375,0.00034205857082270086,-0.002688422566279769,-0.0035905898548662663,-0.00320420041680336,0.00074707594467327,0.0010841903276741505,-0.0013995657209306955,-0.0031841828022152185,-0.002637205645442009,0.002310618292540312,0.002021631458774209,0.000610698014497757,-0.0010985122062265873,0.003669718047603965,-0.0010340161388739944,-0.0024919218849390745,-0.0022797316778451204,0.003458475461229682,0.0022056407760828733,-0.0018795549403876066,0.0004884222871623933,-0.002392100403085351,-0.0002135672402800992,0.002464458579197526,0.0023199240677058697,-0.00389458192512393,0.0017075830837711692,0.0009392783395014703,0.001796937664039433,-0.0022741483990103006,0.0018023259472101927,0.003252869937568903,-0.003286049934104085,0.002884230110794306,-0.0027388944290578365,-0.0034780078567564487,-0.0035652134101837873,-0.00046661985106766224,0.0026679548900574446,0.0007136533968150616,0.00017199767171405256,-0.0031816153787076473,0.0002707911189645529,0.0006141643389128149,0.001540243742056191,-0.003891088766977191,-0.0021557474974542856,0.0004892300348728895,-0.0037099479231983423,0.0008320792694576085,-0.0032996207010000944,-0.00022656684450339526,0.00026185286697000265,0.0014628504868596792,-0.002179338363930583,0.002619960578158498,0.003278863849118352,-0.0021237507462501526,0.003351211780682206,0.0023098692763596773,0.00338881672360003,0.0022917657624930143,-0.0028677480295300484,-0.0015178713947534561,0.0009899145225062966,-0.0022301350254565477,0.0008523039286956191,-0.00023931582109071314,-0.001080895191989839,0.00016402825713157654,0.002183537930250168,0.0015094022965058684,0.0018673832528293133,0.003140218323096633,0.0038562866393476725,-0.0038882503286004066,0.0032652984373271465,-0.0016235230723395944,-0.0018998924642801285,0.003725471207872033,0.0006136508309282362,-0.0011849021539092064,-0.0027729731518775225,-0.0026111812330782413,-0.0006755199865438044,-0.0026392589788883924,0.0024212002754211426,0.0016236697556450963,-0.001120524131692946,0.0022555512841790915,0.0035881621297448874,0.0013136710040271282,0.0019296343671157956,-0.002884209156036377,-0.00038945782580412924,-0.0003396865213289857,-0.0033205689396709204,-0.0004742907185573131,0.000290297728497535,0.002386845415458083,-0.0021018499974161386,-0.0016512777656316757,-0.0022770215291529894
