,0,1,2,3,4,5,6,7,8,9,10,11,12,13,14,15,16,17,18,19,20,21,22,23,24,25,26,27,28,29,30,31,32,33,34,35,36,37,38,39,40,41,42,43,44,45,46,47,48,49,50,51,52,53,54,55,56,57,58,59,60,61,62,63,64,65,66,67,68,69,70,71,72,73,74,75,76,77,78,79,80,81,82,83,84,85,86,87,88,89,90,91,92,93,94,95,96,97,98,99,100,101,102,103,104,105,106,107,108,109,110,111,112,113,114,115,116,117,118,119,120,121,122,123,124,125,126,127
user6,-0.14948023855686188,-0.07966507226228714,0.00805093627423048,-0.03346587345004082,-0.037855397909879684,-0.02283267304301262,-0.2731221616268158,0.1302347332239151,0.02113933674991131,0.22626882791519165,0.07506189495325089,0.0961979329586029,0.041285887360572815,0.012687462382018566,-0.08340496569871902,-0.1576465368270874,-0.06232502683997154,-0.09349175542593002,-0.18936648964881897,0.21834921836853027,0.2820865511894226,-0.20303690433502197,0.10716486722230911,-0.1582261323928833,0.16388730704784393,-0.001526153413578868,-0.03672673925757408,-0.052691686898469925,-0.09544384479522705,-0.05230999365448952,0.07528191804885864,-0.07908042520284653,-0.202396959066391,0.07777869701385498,-0.1962091624736786,0.22803544998168945,0.08882085978984833,-0.014573282562196255,0.23426370322704315,-0.1425853967666626,0.025688283145427704,-0.06388440728187561,0.12441156059503555,0.09629278630018234,0.2606414258480072,0.02114672213792801,0.06555915623903275,0.06882130354642868,-0.10064253956079483,0.14673610031604767,0.12525546550750732,-0.22995609045028687,0.10201207548379898,0.11221211403608322,0.19500227272510529,0.0688345730304718,-0.09864144772291183,0.11281486600637436,0.07877961546182632,0.0121674919500947,-0.08221264183521271,0.2048010379076004,0.028930993750691414,0.05378842353820801,0.03558223694562912,-0.03302055597305298,0.06434714049100876,0.08179579675197601,-0.0032317759469151497,0.01711910031735897,0.05978628247976303,-0.14163587987422943,-0.11401551961898804,0.02102573774755001,-0.08381795138120651,-0.055896833539009094,0.007015733513981104,-0.26229625940322876,0.024014174938201904,0.14853958785533905,-0.02087295614182949,-0.20776979625225067,-0.23604975640773773,-0.09075937420129776,-0.06133422255516052,0.07220177352428436,-0.2703132927417755,0.03681653365492821,0.0929841697216034,-0.28136637806892395,0.019755162298679352,-0.03619565814733505,-0.07292808592319489,-0.15169844031333923,0.16138890385627747,0.0007164627313613892,0.20601601898670197,0.15967465937137604,-0.09688948094844818,0.13850314915180206,0.13475659489631653,0.1263192594051361,0.16015559434890747,0.031177520751953125,-0.08555646985769272,-0.0753299668431282,-0.10420291870832443,-0.025393154472112656,0.029413629323244095,0.0003162581124342978,-0.11587663739919662,0.14494194090366364,-0.12863190472126007,0.004385451786220074,0.11387597769498825,-0.07277646660804749,0.23227077722549438,0.0933326706290245,-0.12380971014499664,-0.13776420056819916,0.17005597054958344,-0.18055380880832672,-0.020945651456713676,-0.1707087606191635,-0.16165399551391602,-0.11389278620481491,0.09239490330219269,0.16816319525241852
user1,-0.14566566050052643,-0.07416334003210068,0.011733760125935078,-0.027938978746533394,-0.035248249769210815,-0.023014390841126442,-0.27010130882263184,0.1294231414794922,0.014320959337055683,0.2223665416240692,0.07316993176937103,0.09340231120586395,0.0398215614259243,0.01109086163341999,-0.08426577597856522,-0.15213285386562347,-0.06373769789934158,-0.0864415168762207,-0.18254156410694122,0.21612048149108887,0.2703695297241211,-0.20045554637908936,0.0978316143155098,-0.15117046236991882,0.15868327021598816,-0.002128977794200182,-0.040163375437259674,-0.04742641746997833,-0.08710795640945435,-0.04780041053891182,0.07837076485157013,-0.07432196289300919,-0.19775855541229248,0.0762091800570488,-0.19206790626049042,0.22036144137382507,0.08567292988300323,-0.016368122771382332,0.22439759969711304,-0.139142706990242,0.02185177430510521,-0.06546946614980698,0.121817946434021,0.09012661874294281,0.25720563530921936,0.017720887437462807,0.06788003444671631,0.06446261703968048,-0.09698349237442017,0.14516417682170868,0.11817225068807602,-0.22888509929180145,0.09380053728818893,0.10905084013938904,0.1884300410747528,0.06433437019586563,-0.09832896292209625,0.11022687703371048,0.07523421943187714,0.012773025780916214,-0.08369675278663635,0.2056325227022171,0.024842578917741776,0.05219992622733116,0.03459973260760307,-0.030818462371826172,0.06594850867986679,0.07966147363185883,-0.0009796555386856198,0.018824465572834015,0.055442340672016144,-0.14099423587322235,-0.11120422184467316,0.023402651771903038,-0.08377112448215485,-0.04909559339284897,0.011175726540386677,-0.25855663418769836,0.020796488970518112,0.14307253062725067,-0.016555503010749817,-0.20547915995121002,-0.22580987215042114,-0.09155867248773575,-0.06397925317287445,0.0651451051235199,-0.2630341649055481,0.033760830760002136,0.09120234847068787,-0.2706311345100403,0.021985618397593498,-0.03371616080403328,-0.07129984349012375,-0.14818891882896423,0.16233786940574646,0.002980104647576809,0.2050170749425888,0.16026867926120758,-0.09297751635313034,0.1318318247795105,0.12971840798854828,0.12427853792905807,0.1544458121061325,0.035658951848745346,-0.08061905205249786,-0.07632382214069366,-0.10366159677505493,-0.017820272594690323,0.024243589490652084,0.005413384642452002,-0.11804695427417755,0.14231759309768677,-0.12212671339511871,0.003934526816010475,0.11186233907938004,-0.06963849067687988,0.2254292219877243,0.0948539450764656,-0.1284155696630478,-0.13674616813659668,0.1717173457145691,-0.16972802579402924,-0.019710460677742958,-0.17275592684745789,-0.16195182502269745,-0.1163794994354248,0.09094443917274475,0.16463527083396912
user2,-0.15060706436634064,-0.07601014524698257,0.007345243357121944,-0.03276951238512993,-0.03780588507652283,-0.02340027131140232,-0.27561283111572266,0.13492855429649353,0.019446633756160736,0.22514241933822632,0.07176343351602554,0.10085447132587433,0.03824832662940025,0.01317428145557642,-0.08761906623840332,-0.1519937366247177,-0.06061739847064018,-0.09136122465133667,-0.18952129781246185,0.21420007944107056,0.28037065267562866,-0.20227693021297455,0.1009788066148758,-0.15785402059555054,0.16619963943958282,-0.0065372297540307045,-0.0435597226023674,-0.05174310877919197,-0.09355239570140839,-0.048997484147548676,0.07131671160459518,-0.07609237730503082,-0.20425647497177124,0.07936720550060272,-0.19444090127944946,0.22499129176139832,0.08864886313676834,-0.014355532824993134,0.23235858976840973,-0.14191676676273346,0.02671852335333824,-0.0629902109503746,0.12362543493509293,0.09162721037864685,0.2654637098312378,0.019456669688224792,0.06423720717430115,0.07251597195863724,-0.0956086665391922,0.1512736827135086,0.11841365694999695,-0.23004797101020813,0.09839463979005814,0.10823208093643188,0.18821869790554047,0.06547680497169495,-0.0978003516793251,0.10927939414978027,0.07787761837244034,0.009779137559235096,-0.08830194920301437,0.20241160690784454,0.02752069942653179,0.05599954351782799,0.03220347687602043,-0.037384554743766785,0.067476786673069,0.07898879796266556,-0.002425683196634054,0.015823006629943848,0.05938456580042839,-0.1338970810174942,-0.10926475375890732,0.02226727269589901,-0.09095234423875809,-0.05039648711681366,0.01217759307473898,-0.2670432925224304,0.024755986407399178,0.14613936841487885,-0.022070392966270447,-0.20880867540836334,-0.23399049043655396,-0.09153775870800018,-0.062054529786109924,0.06612018495798111,-0.2646935284137726,0.040419962257146835,0.09518888592720032,-0.27904224395751953,0.02183596044778824,-0.03400522843003273,-0.0739903673529625,-0.15500923991203308,0.16350987553596497,0.0037627904675900936,0.19908776879310608,0.16176234185695648,-0.09456834197044373,0.13526292145252228,0.13395121693611145,0.1281929761171341,0.16255556046962738,0.03206745162606239,-0.08027970045804977,-0.07712975144386292,-0.10329104959964752,-0.025851095095276833,0.02483617328107357,0.003990113269537687,-0.11741948872804642,0.14515076577663422,-0.12600921094417572,0.005266583990305662,0.1153857633471489,-0.06906792521476746,0.22932401299476624,0.09777063131332397,-0.1239105835556984,-0.1355549544095993,0.17454905807971954,-0.17789043486118317,-0.016384493559598923,-0.1719747930765152,-0.16649293899536133,-0.11424224823713303,0.09360052645206451,0.16991876065731049
user5,-0.15279796719551086,-0.07792697101831436,0.007124314084649086,-0.0351603627204895,-0.03773096948862076,-0.02446008287370205,-0.2854340970516205,0.14153459668159485,0.01551835611462593,0.2281360626220703,0.07066583633422852,0.09998621046543121,0.042475685477256775,0.012581340968608856,-0.08922603726387024,-0.1604538857936859,-0.07034973800182343,-0.09166722744703293,-0.19685348868370056,0.2227802723646164,0.2902370095252991,-0.2074097990989685,0.10800091177225113,-0.16210401058197021,0.16957969963550568,-0.004024884197860956,-0.03819575533270836,-0.051143236458301544,-0.09912875294685364,-0.05315399914979935,0.08169128745794296,-0.07564940303564072,-0.2083122581243515,0.0787498727440834,-0.1998768448829651,0.23184454441070557,0.09619560092687607,-0.0148689653724432,0.24037885665893555,-0.14862743020057678,0.026146307587623596,-0.06607605516910553,0.1293889433145523,0.09411551803350449,0.274783730506897,0.017515484243631363,0.07176271080970764,0.07008177787065506,-0.10336834192276001,0.15330086648464203,0.12959814071655273,-0.23281681537628174,0.10222728550434113,0.11153833568096161,0.19866283237934113,0.06865750998258591,-0.10528536885976791,0.1153256893157959,0.0812256783246994,0.013962247408926487,-0.08573406934738159,0.21386213600635529,0.02779216505587101,0.05435307323932648,0.03551500290632248,-0.039391372352838516,0.06823552399873734,0.08624272048473358,-0.0037190248258411884,0.017831137403845787,0.05878371000289917,-0.14146997034549713,-0.11099109053611755,0.024865051731467247,-0.09242437034845352,-0.0580349862575531,0.00565038388594985,-0.2756848931312561,0.0274457149207592,0.14858828485012054,-0.021658804267644882,-0.21590234339237213,-0.23861561715602875,-0.09719156473875046,-0.060685839504003525,0.06893393397331238,-0.2767334282398224,0.03794819861650467,0.10000967234373093,-0.2868412733078003,0.025890598073601723,-0.041092317551374435,-0.07569360733032227,-0.1589432954788208,0.16691847145557404,-0.0020747364033013582,0.21134667098522186,0.17123232781887054,-0.09849908202886581,0.1361054629087448,0.13722951710224152,0.13132378458976746,0.1689092516899109,0.03690660372376442,-0.08801566809415817,-0.08199954777956009,-0.10230378806591034,-0.02391904406249523,0.030832938849925995,0.006253391969949007,-0.12099038809537888,0.14918114244937897,-0.1296936422586441,0.004273072350770235,0.12102296203374863,-0.07234574109315872,0.23871834576129913,0.09498418867588043,-0.12727747857570648,-0.14348144829273224,0.17954251170158386,-0.18313202261924744,-0.0181693434715271,-0.18223358690738678,-0.17155885696411133,-0.11586806923151016,0.09622020274400711,0.17846378684043884
user3,-0.14856700599193573,-0.07589317113161087,0.014012066647410393,-0.033053841441869736,-0.04153746739029884,-0.029627813026309013,-0.2713780999183655,0.13265210390090942,0.017075596377253532,0.21830517053604126,0.06940263509750366,0.09953419864177704,0.03832978010177612,0.009304492734372616,-0.08079644292593002,-0.15174521505832672,-0.06482011079788208,-0.09171832352876663,-0.18464665114879608,0.215041384100914,0.27692097425460815,-0.20071741938591003,0.10060182958841324,-0.1570945382118225,0.1609397530555725,-0.0028923822101205587,-0.037297170609235764,-0.05104685202240944,-0.08807598054409027,-0.05438936874270439,0.07897137850522995,-0.0734667032957077,-0.20057418942451477,0.06915832310914993,-0.18567906320095062,0.22323326766490936,0.08384453505277634,-0.019055766984820366,0.22962892055511475,-0.140319362282753,0.021099645644426346,-0.06621301919221878,0.12139397859573364,0.09069210290908813,0.2600649893283844,0.018241465091705322,0.0695929080247879,0.06827389448881149,-0.09440615028142929,0.14571179449558258,0.12346471101045609,-0.22784656286239624,0.09156341850757599,0.10331753641366959,0.18824484944343567,0.06528355181217194,-0.10234386473894119,0.10971499979496002,0.07484079897403717,0.01479531079530716,-0.08506156504154205,0.20348092913627625,0.018442897126078606,0.0515265129506588,0.036723434925079346,-0.03173656761646271,0.06158646196126938,0.08168527483940125,-0.002295573242008686,0.017371738329529762,0.0585540346801281,-0.14125026762485504,-0.11422502249479294,0.028892042115330696,-0.08918549120426178,-0.05760961025953293,0.010188544169068336,-0.263615220785141,0.02396605908870697,0.1505712866783142,-0.016308002173900604,-0.20292916893959045,-0.23078317940235138,-0.09493805468082428,-0.05974166467785835,0.07203596085309982,-0.26169124245643616,0.033181969076395035,0.08993175625801086,-0.275177001953125,0.02449941635131836,-0.03413890302181244,-0.06903686374425888,-0.1508924812078476,0.16155864298343658,0.003639452625066042,0.20522145926952362,0.16259202361106873,-0.09087202697992325,0.12979823350906372,0.13454291224479675,0.12624438107013702,0.15313079953193665,0.03116658702492714,-0.08312152326107025,-0.07000129669904709,-0.10395351052284241,-0.018151279538869858,0.029363039880990982,0.004641974810510874,-0.11314187943935394,0.1400735229253769,-0.12571358680725098,0.0018168408423662186,0.11683879047632217,-0.07382777333259583,0.22562697529792786,0.08951247483491898,-0.1264401525259018,-0.13393723964691162,0.17320644855499268,-0.1700289398431778,-0.017104703933000565,-0.1753312647342682,-0.1603233516216278,-0.11246805638074875,0.08537612110376358,0.17004749178886414
user4,-0.14901188015937805,-0.07434411346912384,0.012328751385211945,-0.030329721048474312,-0.036441389471292496,-0.02543802373111248,-0.2692517638206482,0.13253013789653778,0.021848538890480995,0.22084848582744598,0.07235032320022583,0.0977812111377716,0.03983902186155319,0.014506254345178604,-0.07942266762256622,-0.1536320000886917,-0.0660269632935524,-0.09673044830560684,-0.19111385941505432,0.21574588119983673,0.2790067195892334,-0.20616894960403442,0.09928836673498154,-0.15738525986671448,0.1675359606742859,-7.171808101702482e-05,-0.03736510127782822,-0.04877879098057747,-0.09512510150671005,-0.050630323588848114,0.07656075060367584,-0.07521411031484604,-0.2003573179244995,0.07843267917633057,-0.19052813947200775,0.22150763869285583,0.0909375250339508,-0.014704225584864616,0.23045308887958527,-0.14513830840587616,0.02775295078754425,-0.058844324201345444,0.12360470741987228,0.0898183286190033,0.2622160315513611,0.01387943048030138,0.06416872143745422,0.06834548711776733,-0.09903864562511444,0.15071287751197815,0.12723959982395172,-0.22199183702468872,0.0993405133485794,0.10376888513565063,0.19209600985050201,0.06666617095470428,-0.09922021627426147,0.10804671794176102,0.0770614817738533,0.012566669844090939,-0.08104997873306274,0.2080705314874649,0.02416139654815197,0.05498933792114258,0.031385015696287155,-0.03491039574146271,0.0672619491815567,0.07844666391611099,-0.002080846345052123,0.014779279008507729,0.05444208160042763,-0.13381022214889526,-0.11054681986570358,0.02641080506145954,-0.0854143500328064,-0.051885031163692474,0.0061661130748689175,-0.26652517914772034,0.02469407394528389,0.15164943039417267,-0.017103128135204315,-0.20554062724113464,-0.2304353415966034,-0.09072918444871902,-0.059073902666568756,0.07293533533811569,-0.26616373658180237,0.03728034347295761,0.09429914504289627,-0.28022149205207825,0.024351613596081734,-0.035944920033216476,-0.06905976682901382,-0.14987900853157043,0.16424201428890228,-0.0020502659026533365,0.20044828951358795,0.1630023866891861,-0.0965842679142952,0.135296031832695,0.13035330176353455,0.12630708515644073,0.15995065867900848,0.03789612278342247,-0.07690665870904922,-0.07641596347093582,-0.10073597729206085,-0.021796809509396553,0.027438100427389145,0.006734865251928568,-0.11619547754526138,0.14360210299491882,-0.12895405292510986,0.006828683894127607,0.1176598072052002,-0.0702572837471962,0.22270353138446808,0.09699758142232895,-0.12294838577508926,-0.13089756667613983,0.16880737245082855,-0.17940309643745422,-0.021751685068011284,-0.17020702362060547,-0.16814592480659485,-0.11840929836034775,0.08627820760011673,0.17130663990974426
