,0,1,2,3,4,5,6,7,8,9,10,11,12,13,14,15,16,17,18,19,20,21,22,23,24,25,26,27,28,29,30,31,32,33,34,35,36,37,38,39,40,41,42,43,44,45,46,47,48,49,50,51,52,53,54,55,56,57,58,59,60,61,62,63,64,65,66,67,68,69,70,71,72,73,74,75,76,77,78,79,80,81,82,83,84,85,86,87,88,89,90,91,92,93,94,95,96,97,98,99,100,101,102,103,104,105,106,107,108,109,110,111,112,113,114,115,116,117,118,119,120,121,122,123,124,125,126,127
user6,0.11825414001941681,0.0771692544221878,-0.060920946300029755,0.0034774879459291697,0.160047709941864,0.05706791579723358,0.2136973887681961,0.17604316771030426,-0.1453668773174286,-0.0016689206240698695,0.06691444665193558,-0.13223549723625183,-0.07379050552845001,0.14556391537189484,0.07190901041030884,0.07732462882995605,-0.07491029798984528,-0.01872209459543228,0.014461664482951164,-0.03154386952519417,-0.09227073192596436,-0.13992244005203247,0.07757923752069473,-0.10954952985048294,0.003606000216677785,0.03873293846845627,-0.038680944591760635,-0.11507079005241394,0.02628609910607338,0.09761011600494385,0.014027911238372326,-0.005258267279714346,0.12883266806602478,-0.04370807111263275,0.010876636952161789,-0.08709216117858887,0.08129686117172241,0.06802736967802048,0.06134160980582237,0.0137277040630579,-0.07254506647586823,-0.05555719509720802,0.002095408970490098,0.11651758849620819,-0.02067718096077442,0.12676098942756653,-0.20172907412052155,-0.07372727990150452,-0.02813861519098282,-0.2434476613998413,-0.11662691831588745,-0.016662990674376488,-0.0025119115598499775,0.1583457738161087,-0.04018513113260269,0.06134366989135742,-0.07360223680734634,-0.09239937365055084,0.03104807622730732,-0.12291523069143295,0.009737376123666763,0.010646259412169456,-0.024640142917633057,-0.07047346234321594,-0.12121154367923737,-0.14798413217067719,-0.06436681002378464,0.1304459422826767,0.08557680249214172,0.01174665056169033,0.12245946377515793,-0.08125356584787369,0.027686480432748795,-0.032408956438302994,0.04808630794286728,-0.07137686014175415,0.18639464676380157,-0.01003569457679987,0.1340225338935852,0.09431866556406021,0.1324189156293869,-0.0018306858837604523,0.1010279580950737,-0.14693164825439453,-0.06995347887277603,-0.24418313801288605,-0.0317314937710762,-0.047729380428791046,-0.1073172315955162,0.07269833981990814,0.012823090888559818,0.10760655999183655,0.2377868890762329,0.19820930063724518,-0.0863349661231041,-0.05726063251495361,-0.20725257694721222,0.003666331060230732,0.07590719312429428,0.21310272812843323,-0.09746209532022476,-0.08613353222608566,-0.08973775804042816,0.018252624198794365,0.11120335757732391,-0.01772770658135414,0.16010525822639465,0.054988037794828415,-0.036152951419353485,-0.015207755379378796,0.052717193961143494,0.11567530781030655,-0.09530510008335114,-0.08639558404684067,0.06194893270730972,0.07740138471126556,-0.05960569903254509,0.012333505786955357,-0.2902657687664032,0.030980609357357025,0.18496419489383698,0.026787659153342247,-0.17323583364486694,-0.021189697086811066,-0.13424783945083618,0.08205253630876541,0.17173641920089722,-0.19612441956996918
user3,0.13551092147827148,0.0688147023320198,-0.054295532405376434,0.0064277127385139465,0.15525053441524506,0.04252761974930763,0.20480860769748688,0.18245692551136017,-0.15657678246498108,0.02316511608660221,0.07068665325641632,-0.14072200655937195,-0.06527344137430191,0.13722917437553406,0.058748774230480194,0.06136634200811386,-0.06479599326848984,-0.005175956524908543,0.01924823969602585,-0.05457048490643501,-0.10162211209535599,-0.13663768768310547,0.08159177005290985,-0.10376279801130295,0.0019257410895079374,0.046030692756175995,-0.028550630435347557,-0.11115963757038116,0.026473693549633026,0.10953492671251297,0.007723571732640266,-0.006187809631228447,0.11754851043224335,-0.05637430399656296,0.011904616840183735,-0.08114004135131836,0.07161203771829605,0.054960187524557114,0.05698559433221817,0.03655287250876427,-0.08047691732645035,-0.061656590551137924,0.021554654464125633,0.13000938296318054,-0.04198784753680229,0.139445498585701,-0.21221904456615448,-0.08759085088968277,-0.034167055040597916,-0.24911253154277802,-0.11367631703615189,-0.01549537107348442,0.010478260926902294,0.15643590688705444,-0.03866109997034073,0.06287876516580582,-0.09029774367809296,-0.0979752242565155,0.0448627807199955,-0.13227495551109314,0.009857268072664738,0.004376065917313099,-0.021980108693242073,-0.06743096560239792,-0.1167704313993454,-0.15189683437347412,-0.05923623591661453,0.11741398274898529,0.0755450576543808,-0.007594972848892212,0.11125560104846954,-0.0849083662033081,0.04055680334568024,-0.015874065458774567,0.05626252293586731,-0.06794214993715286,0.18028417229652405,0.001452478813007474,0.1201140284538269,0.08022351562976837,0.12773887813091278,0.003820494282990694,0.09867502003908157,-0.1308898776769638,-0.09001844376325607,-0.24593670666217804,-0.029096366837620735,-0.06375318765640259,-0.08711544424295425,0.06581121683120728,-0.0030273757874965668,0.11078760027885437,0.23691736161708832,0.18211080133914948,-0.07232175767421722,-0.07495037466287613,-0.18925336003303528,-0.006295373197644949,0.0810658261179924,0.2148580402135849,-0.09735497087240219,-0.08701826632022858,-0.09413133561611176,0.012299838475883007,0.12510047852993011,-0.003251605434343219,0.1493537873029709,0.07390818744897842,-0.02840912714600563,-0.020143326371908188,0.04245239496231079,0.12448708713054657,-0.10246317088603973,-0.08731156587600708,0.06820198148488998,0.08967817574739456,-0.04343762993812561,0.014153489843010902,-0.2759380638599396,0.026711519807577133,0.18245065212249756,0.02709009498357773,-0.16527526080608368,-0.015235024504363537,-0.1449456363916397,0.07360342890024185,0.17803461849689484,-0.19901813566684723
user4,0.12311910837888718,0.06931927800178528,-0.053279709070920944,-0.012966933660209179,0.14663362503051758,0.05153832957148552,0.20445412397384644,0.18579505383968353,-0.14994294941425323,0.016303284093737602,0.07982002198696136,-0.14168837666511536,-0.05667795613408089,0.14738436043262482,0.07084447145462036,0.062013447284698486,-0.05771983414888382,-0.0056999363005161285,0.030622310936450958,-0.062179867178201675,-0.1015762984752655,-0.14505748450756073,0.06705008447170258,-0.10861322283744812,-0.011734471656382084,0.05640023574233055,-0.02265450544655323,-0.10868370532989502,0.02078181318938732,0.11662283539772034,0.013280641287565231,-0.010440611280500889,0.11126820743083954,-0.04908885434269905,-0.007246690336614847,-0.09043887257575989,0.05871087685227394,0.058383598923683167,0.04412562772631645,0.029016995802521706,-0.07915978878736496,-0.06929683685302734,0.0024563230108469725,0.12010982632637024,-0.04073651134967804,0.14667481184005737,-0.20722566545009613,-0.08585487306118011,-0.03048919141292572,-0.2595904469490051,-0.1307721883058548,-0.019320957362651825,-0.009587039239704609,0.16475218534469604,-0.049091290682554245,0.06644204258918762,-0.07041171938180923,-0.09930682927370071,0.02529238350689411,-0.12567566335201263,-0.006478553172200918,-0.0056464276276528835,-0.0038257387932389975,-0.08073776960372925,-0.12560920417308807,-0.16330081224441528,-0.041724350303411484,0.11969594657421112,0.09267843514680862,-0.0014922905247658491,0.1106606051325798,-0.0868803858757019,0.032790422439575195,-0.0026275787968188524,0.06044008582830429,-0.06225175783038139,0.17872785031795502,0.007328833919018507,0.1274719089269638,0.09011971205472946,0.12142696976661682,0.015170419588685036,0.0926915854215622,-0.14268039166927338,-0.08294141292572021,-0.2466687709093094,-0.025757448747754097,-0.07244112342596054,-0.08461961150169373,0.05171572044491768,0.003422494512051344,0.10298699885606766,0.23221074044704437,0.19048526883125305,-0.07087206840515137,-0.07019498944282532,-0.172209233045578,0.0011790536809712648,0.08023755997419357,0.209138885140419,-0.08394395560026169,-0.09596089273691177,-0.09872972965240479,0.0325343981385231,0.13696573674678802,-0.00021721216035075486,0.14869476854801178,0.056063584983348846,-0.02668793499469757,-0.019618257880210876,0.04991522803902626,0.11236972361803055,-0.11658421903848648,-0.07282324135303497,0.0676676407456398,0.09194167703390121,-0.036345116794109344,0.004194330424070358,-0.2686437666416168,0.04147620126605034,0.20179840922355652,0.00758926197886467,-0.16937537491321564,-0.021492136642336845,-0.13152024149894714,0.05955711752176285,0.18975572288036346,-0.21315093338489532
user2,0.12300648540258408,0.07656370848417282,-0.053249940276145935,-0.0101450365036726,0.1509338915348053,0.04856095090508461,0.22004564106464386,0.1880308836698532,-0.1434968262910843,0.012706631794571877,0.07497517019510269,-0.13580045104026794,-0.059272486716508865,0.14334435760974884,0.08283764123916626,0.0674339160323143,-0.06815601885318756,-0.01954249106347561,0.022133348509669304,-0.0594240203499794,-0.1023978665471077,-0.1390727311372757,0.0700535774230957,-0.10795120149850845,-0.011420412920415401,0.04394600912928581,-0.02963082678616047,-0.10888350009918213,0.012662005610764027,0.113510861992836,0.009911647997796535,-0.007125122006982565,0.11276603490114212,-0.041595056653022766,-0.002779515227302909,-0.08130475133657455,0.0611228309571743,0.06417222321033478,0.05194512754678726,0.016466740518808365,-0.0734105333685875,-0.06080188974738121,-0.006691088434308767,0.11048145592212677,-0.039384402334690094,0.1417590230703354,-0.1932063102722168,-0.07258683443069458,-0.01707405038177967,-0.2527880370616913,-0.12740807235240936,-0.019570164382457733,-0.014395947568118572,0.15820349752902985,-0.04547399282455444,0.056866202503442764,-0.07240589708089828,-0.08877703547477722,0.02256767824292183,-0.11507153511047363,-0.0034139477647840977,-0.0010163933038711548,-0.007973186671733856,-0.08623137325048447,-0.12629921734333038,-0.16218875348567963,-0.052298035472631454,0.11397569626569748,0.09242438524961472,0.004741223994642496,0.11729192733764648,-0.08039740473031998,0.024179283529520035,-0.008026615716516972,0.06444136053323746,-0.06062820553779602,0.18012557923793793,-0.0018861891003325582,0.13829030096530914,0.09241598844528198,0.12024581432342529,0.00017404048412572592,0.09368143230676651,-0.14913128316402435,-0.06892669200897217,-0.2494894117116928,-0.031855929642915726,-0.06755180656909943,-0.09605395048856735,0.058212511241436005,0.012787830084562302,0.10729988664388657,0.24002310633659363,0.19153206050395966,-0.07141659408807755,-0.05338417738676071,-0.1815871149301529,0.00580486748367548,0.07169345766305923,0.21432338654994965,-0.08563322573900223,-0.08647049218416214,-0.09068340808153152,0.03463331609964371,0.12278203666210175,0.0019895387813448906,0.16303279995918274,0.0564841628074646,-0.01924142614006996,-0.010775755159556866,0.0463469922542572,0.10792367160320282,-0.1098896712064743,-0.08366415649652481,0.06348821520805359,0.09194193035364151,-0.04125482216477394,-0.005142509005963802,-0.28231772780418396,0.041889600455760956,0.20353487133979797,0.0032309957314282656,-0.1780954748392105,-0.025848666206002235,-0.13831102848052979,0.06535311043262482,0.18040646612644196,-0.20616504549980164
user1,0.12757116556167603,0.07003143429756165,-0.056479547172784805,-0.004187298007309437,0.15727637708187103,0.04628301411867142,0.21040372550487518,0.18732336163520813,-0.1534932404756546,0.025320908054709435,0.07401653379201889,-0.14098535478115082,-0.06344230473041534,0.13462737202644348,0.06712532788515091,0.06157025322318077,-0.06476367264986038,-0.0032987964805215597,0.026043474674224854,-0.06213769689202309,-0.10730349272489548,-0.14118678867816925,0.07870124280452728,-0.10655698925256729,-0.004457192961126566,0.04692324250936508,-0.027099888771772385,-0.11052676290273666,0.018226217478513718,0.1164170652627945,0.010226125828921795,-0.013813548721373081,0.11194639652967453,-0.05075571686029434,0.011612879112362862,-0.07742002606391907,0.06892327219247818,0.057978928089141846,0.06001107022166252,0.02921495959162712,-0.0707705095410347,-0.05955476313829422,0.008884257636964321,0.131195530295372,-0.039046380668878555,0.14142253994941711,-0.21043992042541504,-0.08104138821363449,-0.024900391697883606,-0.24931126832962036,-0.11989526450634003,-0.012227584607899189,-0.005519942846149206,0.15766382217407227,-0.044459033757448196,0.06212538853287697,-0.08137191087007523,-0.09504793584346771,0.03998054936528206,-0.12281334400177002,0.0001444336085114628,-0.003947023767977953,-0.01832016557455063,-0.07708454132080078,-0.12504008412361145,-0.15931202471256256,-0.05591714382171631,0.11539937555789948,0.07813391089439392,-0.0062620933167636395,0.11361031979322433,-0.0841754823923111,0.030441153794527054,-0.01237489189952612,0.061935797333717346,-0.06203974410891533,0.18437938392162323,0.0025379578582942486,0.12665852904319763,0.0868544802069664,0.12066441774368286,0.000538912252523005,0.09886275976896286,-0.14138482511043549,-0.08522742986679077,-0.24938827753067017,-0.030369462445378304,-0.06452059745788574,-0.08954061567783356,0.060499731451272964,0.0053215231746435165,0.11168316751718521,0.23844459652900696,0.18658171594142914,-0.0762157142162323,-0.06997327506542206,-0.18357597291469574,-0.007111764047294855,0.0740303248167038,0.2101856768131256,-0.09707139432430267,-0.08132260292768478,-0.09687638282775879,0.017496490851044655,0.12157005071640015,-0.0029185458552092314,0.15890131890773773,0.06815428286790848,-0.017888246104121208,-0.01890755631029606,0.0444510281085968,0.11889667809009552,-0.10535462945699692,-0.08941397815942764,0.06549333781003952,0.09406189620494843,-0.03858793526887894,0.012130524031817913,-0.27694544196128845,0.02928069792687893,0.18721719086170197,0.01588468998670578,-0.17175932228565216,-0.0132881635800004,-0.1450689136981964,0.06166550889611244,0.1792358160018921,-0.2010844349861145
user5,0.12864239513874054,0.07477909326553345,-0.05446544662117958,-0.0016791702946648002,0.15281522274017334,0.04891308397054672,0.21314089000225067,0.1817726194858551,-0.1525023877620697,0.013622955419123173,0.07029980421066284,-0.1366274356842041,-0.0631180927157402,0.14140060544013977,0.07511916011571884,0.06641208380460739,-0.06993960589170456,-0.015076461248099804,0.025291303172707558,-0.058657996356487274,-0.1065603643655777,-0.1400212049484253,0.07491160184144974,-0.10493980348110199,-0.006172657012939453,0.05262237414717674,-0.03286787122488022,-0.11381948739290237,0.01956651359796524,0.11140040308237076,0.0029953299090266228,-0.0057568238116800785,0.11448335647583008,-0.04115621745586395,0.0027226621750742197,-0.08293905854225159,0.06617968529462814,0.06176939979195595,0.05158248916268349,0.028323188424110413,-0.07918567210435867,-0.06432756036520004,0.002817488042637706,0.11846698075532913,-0.044542405754327774,0.13706247508525848,-0.20633213222026825,-0.08538869768381119,-0.02294091135263443,-0.25587499141693115,-0.12173332273960114,-0.023331429809331894,-0.0035221988800913095,0.1572715938091278,-0.04696468636393547,0.0561743788421154,-0.0810965821146965,-0.09504639357328415,0.03418798744678497,-0.1252358853816986,0.0012868928024545312,-0.0034979870542883873,-0.013539516367018223,-0.08195098489522934,-0.12829793989658356,-0.16049399971961975,-0.051351599395275116,0.12055569887161255,0.0895790234208107,-0.0012869646307080984,0.11593645066022873,-0.08466711640357971,0.03707772493362427,-0.0066552599892020226,0.05761128291487694,-0.06909026205539703,0.17544233798980713,0.0033526942133903503,0.13591043651103973,0.08263153582811356,0.11505360156297684,0.005137029569596052,0.08960278332233429,-0.14406713843345642,-0.07743578404188156,-0.25174713134765625,-0.029886804521083832,-0.07032414525747299,-0.08989366143941879,0.058758970350027084,0.0027434970252215862,0.10894031077623367,0.24018624424934387,0.1942240446805954,-0.07544117420911789,-0.0641111359000206,-0.18423448503017426,-0.0006755721988156438,0.07890486717224121,0.22066690027713776,-0.0856839120388031,-0.08739663660526276,-0.0907425656914711,0.0304629597812891,0.13155093789100647,0.0051710098050534725,0.16014651954174042,0.06335219740867615,-0.01960441656410694,-0.010904586873948574,0.04249056801199913,0.11764616519212723,-0.11223704367876053,-0.08404035121202469,0.0732208788394928,0.09112957119941711,-0.03991321474313736,-0.0031582070514559746,-0.2826055586338043,0.04007236286997795,0.20081980526447296,0.012991105206310749,-0.1753925234079361,-0.020369358360767365,-0.13554853200912476,0.06908853352069855,0.18263937532901764,-0.2072277069091797
