,0,1,2,3,4,5,6,7,8,9,10,11,12,13,14,15,16,17,18,19,20,21,22,23,24,25,26,27,28,29,30,31,32,33,34,35,36,37,38,39,40,41,42,43,44,45,46,47,48,49,50,51,52,53,54,55,56,57,58,59,60,61,62,63,64,65,66,67,68,69,70,71,72,73,74,75,76,77,78,79,80,81,82,83,84,85,86,87,88,89,90,91,92,93,94,95,96,97,98,99,100,101,102,103,104,105,106,107,108,109,110,111,112,113,114,115,116,117,118,119,120,121,122,123,124,125,126,127
user2,-0.06939904391765594,0.1654345840215683,0.035301849246025085,-0.02919415757060051,0.1868601143360138,-0.04315284639596939,0.13729161024093628,0.20143452286720276,0.15050473809242249,-0.039916906505823135,-0.20604895055294037,-0.20393264293670654,-0.09398400783538818,0.0011017104843631387,0.01905236579477787,0.1910758763551712,-0.025760101154446602,-0.17011554539203644,0.08736782521009445,-0.06095748394727707,-0.19613578915596008,0.1436494141817093,0.16915975511074066,-0.0831277146935463,0.0954439640045166,-0.13742834329605103,0.15423937141895294,0.08634103089570999,0.294519305229187,0.010213472880423069,-0.03004903718829155,-0.13517604768276215,0.12084002792835236,-0.12687350809574127,-0.06285007297992706,-0.03402096778154373,0.13433997333049774,-0.026665925979614258,0.17440345883369446,0.0054311444982886314,0.1404736191034317,-0.13111379742622375,-0.013511011376976967,-0.012603509239852428,0.1580314040184021,-0.003556356532499194,-0.06610903888940811,0.12152305245399475,-0.006477569695562124,0.2943626046180725,0.07617626339197159,0.039811357855796814,-0.10514509677886963,0.06523479521274567,-0.06777402013540268,0.1501569002866745,0.3956874907016754,-0.020636165514588356,0.060361478477716446,-0.026112385094165802,0.24689248204231262,-0.12335752695798874,0.0469280369579792,0.11799413710832596,-0.053929999470710754,0.23413386940956116,0.09013118594884872,-0.023848023265600204,0.08432979136705399,-0.1273147314786911,-0.1213405504822731,-0.15541397035121918,-0.02448294311761856,-0.12378361076116562,-0.056285444647073746,-0.020324504002928734,0.07938305288553238,-0.04644833505153656,0.17181827127933502,0.06355242431163788,-0.024490632116794586,-0.0456579327583313,0.08336423337459564,-0.016190920025110245,0.17450876533985138,-0.19884541630744934,0.09407824277877808,-0.039123669266700745,0.1919618397951126,-0.26682209968566895,0.002948946552351117,0.1128549575805664,0.058775730431079865,0.10323192179203033,0.0789741650223732,-0.0179582592099905,0.04455746337771416,0.1318655163049698,-0.0974770188331604,0.22536012530326843,0.06596428900957108,0.013944045640528202,0.06750292330980301,0.05695224925875664,0.34474101662635803,-0.00100721197668463,0.18449881672859192,-0.016800375655293465,0.015622290782630444,0.04215861111879349,0.09660791605710983,-0.14612135291099548,0.020490236580371857,0.06595385074615479,0.10435751080513,-0.19230446219444275,0.08785433322191238,0.06256561726331711,0.2633965313434601,-0.044385071843862534,0.007105089724063873,0.12903481721878052,-0.012102805078029633,-0.23477958142757416,0.0034209408331662416,-0.10823947191238403,-0.13520120084285736,0.10338380187749863
user4,-0.07391452044248581,0.1641761213541031,0.02974568121135235,-0.0339416079223156,0.1890915334224701,-0.03732142597436905,0.1412113457918167,0.20001095533370972,0.15596650540828705,-0.04411543160676956,-0.20642676949501038,-0.2068023830652237,-0.09798628836870193,0.00013151884195394814,0.02173665165901184,0.19481061398983002,-0.025897178798913956,-0.17366550862789154,0.08765202015638351,-0.06049228087067604,-0.20319341123104095,0.14476290345191956,0.1659146398305893,-0.08622925728559494,0.09910813719034195,-0.14191246032714844,0.1531347781419754,0.09236089140176773,0.30296534299850464,0.013634799979627132,-0.03022916428744793,-0.13989847898483276,0.12626102566719055,-0.12626680731773376,-0.05955034866929054,-0.036253731697797775,0.1390043944120407,-0.0327497199177742,0.17689473927021027,0.003907431848347187,0.14160224795341492,-0.1296708881855011,-0.00942988321185112,-0.010433408431708813,0.15702524781227112,-0.00480155972763896,-0.06748233735561371,0.12231126427650452,-0.0018685022369027138,0.2992848753929138,0.07657564431428909,0.040648095309734344,-0.10856170952320099,0.06433147192001343,-0.07244140654802322,0.15051305294036865,0.4036330282688141,-0.018740667030215263,0.05347293242812157,-0.023087862879037857,0.24684014916419983,-0.12538272142410278,0.04778936132788658,0.12122388929128647,-0.050537385046482086,0.23793067038059235,0.09397531300783157,-0.0230364091694355,0.08394968509674072,-0.1317991316318512,-0.12325896322727203,-0.15931546688079834,-0.02394767291843891,-0.12173361331224442,-0.053863562643527985,-0.020407455042004585,0.07774632424116135,-0.045893892645835876,0.18073353171348572,0.06524558365345001,-0.026505276560783386,-0.04739309847354889,0.07997919619083405,-0.015657011419534683,0.17234551906585693,-0.19922229647636414,0.09551088511943817,-0.03919177129864693,0.194332093000412,-0.271906316280365,-0.0016634436324238777,0.11379620432853699,0.057668592780828476,0.10435175895690918,0.08100637048482895,-0.02097865380346775,0.03994012624025345,0.13514728844165802,-0.09527881443500519,0.2290337234735489,0.0673825666308403,0.013752173632383347,0.06720395386219025,0.0605839304625988,0.3477683365345001,0.0008050860487855971,0.18184615671634674,-0.019072646275162697,0.0165837612003088,0.04539646953344345,0.09119003266096115,-0.15122970938682556,0.024991117417812347,0.06977827101945877,0.10992098599672318,-0.19301952421665192,0.09202896058559418,0.06439734995365143,0.2645488679409027,-0.04742703214287758,0.001671903533861041,0.12974600493907928,-0.010979438200592995,-0.23633457720279694,0.00857376866042614,-0.10517248511314392,-0.13792042434215546,0.10547264665365219
user5,-0.07036715745925903,0.16153043508529663,0.030010268092155457,-0.027667229995131493,0.18594923615455627,-0.03998420760035515,0.13415579497814178,0.19274117052555084,0.15200677514076233,-0.04126795008778572,-0.19590584933757782,-0.1942732036113739,-0.08958752453327179,-0.0018746100831776857,0.01890905387699604,0.18339267373085022,-0.026923617348074913,-0.16714754700660706,0.07941930741071701,-0.06101751700043678,-0.1928843855857849,0.14281252026557922,0.16679401695728302,-0.08074033260345459,0.09360136091709137,-0.1331966668367386,0.1553354263305664,0.08273349702358246,0.28913411498069763,0.014920392073690891,-0.03057660348713398,-0.13292530179023743,0.12065643817186356,-0.11795016378164291,-0.06007993966341019,-0.03374112397432327,0.1326223611831665,-0.029273822903633118,0.1717199683189392,0.0072889504954218864,0.13647575676441193,-0.13056878745555878,-0.014057203195989132,-0.0038061311934143305,0.14826138317584991,-0.00020486519497353584,-0.06613781303167343,0.12103785574436188,0.0002607927017379552,0.288061261177063,0.07238434255123138,0.04267676919698715,-0.09899197518825531,0.059889376163482666,-0.06765672564506531,0.14402946829795837,0.38948801159858704,-0.023995866999030113,0.05137328431010246,-0.022602014243602753,0.23868538439273834,-0.1231335774064064,0.04597127065062523,0.11663958430290222,-0.05048173666000366,0.227876216173172,0.08997243642807007,-0.024635814130306244,0.08241736143827438,-0.12359877675771713,-0.11516157537698746,-0.15575332939624786,-0.022764775902032852,-0.11547622084617615,-0.0540069118142128,-0.022947601974010468,0.07628054916858673,-0.04324572533369064,0.17418502271175385,0.06201869621872902,-0.024941377341747284,-0.043608423322439194,0.08156223595142365,-0.014478401280939579,0.16950629651546478,-0.18745110929012299,0.09462076425552368,-0.031839266419410706,0.18597771227359772,-0.2646872103214264,0.0002555593673605472,0.10843489319086075,0.05104832351207733,0.10090448707342148,0.07443676143884659,-0.021832680329680443,0.04065173864364624,0.1277005523443222,-0.09133749455213547,0.21990104019641876,0.06407061219215393,0.01692112907767296,0.0620332807302475,0.05794024467468262,0.33412691950798035,6.856453546788543e-05,0.1761830747127533,-0.01383188646286726,0.016825484111905098,0.044733405113220215,0.08879061043262482,-0.148342564702034,0.019022786989808083,0.06813081353902817,0.10538873821496964,-0.188847154378891,0.09115239232778549,0.060984522104263306,0.25411251187324524,-0.045442670583724976,0.0009014648385345936,0.12522363662719727,-0.004768002312630415,-0.22776876389980316,0.004675761796534061,-0.10293325036764145,-0.13681799173355103,0.09565280377864838
user6,-0.07788615673780441,0.16944056749343872,0.035167839378118515,-0.036914482712745667,0.196292906999588,-0.04290635883808136,0.13741393387317657,0.21248479187488556,0.15805304050445557,-0.038901373744010925,-0.21295906603336334,-0.21397563815116882,-0.09863705933094025,-0.002972373738884926,0.022876031696796417,0.20078259706497192,-0.028002498671412468,-0.17626824975013733,0.0850556269288063,-0.05750802531838417,-0.2056930959224701,0.15103870630264282,0.16954118013381958,-0.0864831805229187,0.1031651645898819,-0.14790324866771698,0.1663402020931244,0.09240340441465378,0.3085471987724304,0.01287927571684122,-0.031131407245993614,-0.13877049088478088,0.13381023705005646,-0.12953869998455048,-0.06025570258498192,-0.03637967258691788,0.1443084329366684,-0.027664361521601677,0.18428783118724823,0.006061333231627941,0.13694682717323303,-0.13774894177913666,-0.01079630758613348,-0.014192173257470131,0.16461318731307983,-0.008409904316067696,-0.06913882493972778,0.12659071385860443,-0.006111062131822109,0.3073250949382782,0.07488035410642624,0.04469967260956764,-0.10382600128650665,0.06025240570306778,-0.07018236070871353,0.15225186944007874,0.41478660702705383,-0.025462625548243523,0.06155000999569893,-0.0273571964353323,0.25657394528388977,-0.12104927748441696,0.0485682412981987,0.12391302734613419,-0.05958908423781395,0.24291811883449554,0.09666074812412262,-0.028437234461307526,0.0861411988735199,-0.1332220584154129,-0.12138037383556366,-0.16182222962379456,-0.024682562798261642,-0.12930703163146973,-0.05971802771091461,-0.023736603558063507,0.07935525476932526,-0.05046718940138817,0.18029069900512695,0.06235237792134285,-0.030224645510315895,-0.04832926392555237,0.08461485803127289,-0.013671455904841423,0.17928838729858398,-0.20659814774990082,0.0978880301117897,-0.033407580107450485,0.1978803128004074,-0.2845288813114166,-0.0005683548515662551,0.11792996525764465,0.05370045080780983,0.1084582731127739,0.08657419681549072,-0.024768179282546043,0.04192166030406952,0.1386093944311142,-0.0994502380490303,0.23007556796073914,0.06801432371139526,0.014881818555295467,0.06512409448623657,0.06120821461081505,0.35618290305137634,-0.003307836130261421,0.18587088584899902,-0.017348451539874077,0.015636678785085678,0.05024895444512367,0.10273046791553497,-0.15875546634197235,0.026791803538799286,0.0713646188378334,0.10831312835216522,-0.1995890885591507,0.0988411083817482,0.0676257312297821,0.2750537395477295,-0.05047374591231346,0.0032714647240936756,0.13853374123573303,-0.010742093436419964,-0.2469031810760498,0.004509701859205961,-0.10836692899465561,-0.14911700785160065,0.10142048448324203
user1,-0.06686471402645111,0.16126714646816254,0.027506612241268158,-0.033126410096883774,0.19143284857273102,-0.03678612783551216,0.13029693067073822,0.20516875386238098,0.15260927379131317,-0.041756678372621536,-0.20109830796718597,-0.20264320075511932,-0.0981709212064743,0.001235838863067329,0.024206018075346947,0.1905832141637802,-0.030772853642702103,-0.17496927082538605,0.08864579349756241,-0.056391049176454544,-0.20226766169071198,0.14636890590190887,0.16767656803131104,-0.08633825927972794,0.10182124376296997,-0.13412049412727356,0.15809902548789978,0.09095682203769684,0.2929588854312897,0.016983089968562126,-0.032662395387887955,-0.13492104411125183,0.12406138330698013,-0.12655863165855408,-0.06277886778116226,-0.0347333699464798,0.13506421446800232,-0.035285886377096176,0.17580470442771912,0.0064276945777237415,0.13934138417243958,-0.12632670998573303,-0.014392952434718609,-0.01006967481225729,0.1588098108768463,-0.005354413762688637,-0.07079894095659256,0.12319276481866837,-0.003499423386529088,0.29724985361099243,0.07044173032045364,0.04434797167778015,-0.1045493334531784,0.056299734860658646,-0.07034163922071457,0.1457071751356125,0.3976271450519562,-0.02601197548210621,0.05233967304229736,-0.02176402136683464,0.2487618625164032,-0.12209228426218033,0.05027509108185768,0.11757315695285797,-0.04916379973292351,0.23595866560935974,0.09052085131406784,-0.026660170406103134,0.08003563433885574,-0.1255618780851364,-0.11401527374982834,-0.15823616087436676,-0.020012421533465385,-0.11789711564779282,-0.0602443665266037,-0.021346863359212875,0.08044255524873734,-0.049176838248968124,0.17933526635169983,0.06491955369710922,-0.026964953169226646,-0.04473164677619934,0.08264358341693878,-0.016091054305434227,0.17097404599189758,-0.19558876752853394,0.09358150511980057,-0.036082055419683456,0.19291247427463531,-0.2675081789493561,0.002384674735367298,0.11831292510032654,0.05481971055269241,0.09672881662845612,0.08049090951681137,-0.017506707459688187,0.0392535962164402,0.13239456713199615,-0.09123076498508453,0.2213718146085739,0.06678243726491928,0.016828959807753563,0.06212760508060455,0.06563802063465118,0.3463338315486908,0.0008358459454029799,0.17775402963161469,-0.018004484474658966,0.012577100656926632,0.044266752898693085,0.0977824330329895,-0.15456053614616394,0.025013776496052742,0.06271208077669144,0.10895837098360062,-0.19467167556285858,0.0929427444934845,0.06435003131628036,0.2656717300415039,-0.04830145835876465,0.0011215917766094208,0.12859594821929932,-0.003927699755877256,-0.23368528485298157,0.01030261255800724,-0.1061721220612526,-0.14388582110404968,0.10178840160369873
user3,-0.07399675995111465,0.1641945242881775,0.03233959525823593,-0.029455125331878662,0.19855694472789764,-0.04252593591809273,0.13762584328651428,0.21186427772045135,0.15599656105041504,-0.04326450452208519,-0.21241942048072815,-0.20945033431053162,-0.09879495948553085,-0.0024809904862195253,0.02701418288052082,0.1960640847682953,-0.028119700029492378,-0.17418032884597778,0.08429136127233505,-0.0644870176911354,-0.2080637812614441,0.15089814364910126,0.17025606334209442,-0.0859372615814209,0.10300695896148682,-0.1455579698085785,0.16139808297157288,0.09010049700737,0.3056069016456604,0.009541315957903862,-0.030055811628699303,-0.14416274428367615,0.13191527128219604,-0.12669236958026886,-0.06105438992381096,-0.02980240434408188,0.14232158660888672,-0.03377239406108856,0.1766081154346466,0.004189911764115095,0.14028792083263397,-0.1317775994539261,-0.011354952119290829,-0.013397898524999619,0.15808598697185516,-0.006039697211235762,-0.07272777706384659,0.12687331438064575,-0.0020318077877163887,0.3035253882408142,0.0735950618982315,0.046109966933727264,-0.11041923612356186,0.06419435888528824,-0.06830622255802155,0.15622079372406006,0.4083111882209778,-0.021962741389870644,0.059541966766119,-0.025779303163290024,0.2503030598163605,-0.12815536558628082,0.04628031328320503,0.11901795119047165,-0.055245306342840195,0.2392304539680481,0.09061897546052933,-0.025180654600262642,0.08378250896930695,-0.12876556813716888,-0.12080059200525284,-0.16315147280693054,-0.02348237857222557,-0.1283770650625229,-0.061306096613407135,-0.02000807784497738,0.08429839462041855,-0.044782642275094986,0.18315346539020538,0.059885215014219284,-0.02521638385951519,-0.0476454496383667,0.08049001544713974,-0.01999739371240139,0.18061138689517975,-0.20520873367786407,0.09964205324649811,-0.03631315752863884,0.19172336161136627,-0.2777348458766937,-0.0015943984035402536,0.11712037771940231,0.05606723204255104,0.10088706761598587,0.0822865441441536,-0.019425464794039726,0.04563015699386597,0.13838347792625427,-0.09807192534208298,0.22842590510845184,0.06793610006570816,0.018496094271540642,0.06655355542898178,0.06652854382991791,0.35245031118392944,-0.0024165066424757242,0.18590529263019562,-0.01461649127304554,0.011637881398200989,0.044308170676231384,0.10115945339202881,-0.15511564910411835,0.024245623499155045,0.07153207063674927,0.11308087408542633,-0.1968868523836136,0.09699481725692749,0.06295517832040787,0.27490878105163574,-0.048443518579006195,0.0058661228977143764,0.13600964844226837,-0.006008191965520382,-0.24321480095386505,0.007169476244598627,-0.10827450454235077,-0.14204105734825134,0.10500720143318176
