,0,1,2,3,4,5,6,7,8,9,10,11,12,13,14,15,16,17,18,19,20,21,22,23,24,25,26,27,28,29,30,31,32,33,34,35,36,37,38,39,40,41,42,43,44,45,46,47,48,49,50,51,52,53,54,55,56,57,58,59,60,61,62,63,64,65,66,67,68,69,70,71,72,73,74,75,76,77,78,79,80,81,82,83,84,85,86,87,88,89,90,91,92,93,94,95,96,97,98,99,100,101,102,103,104,105,106,107,108,109,110,111,112,113,114,115,116,117,118,119,120,121,122,123,124,125,126,127
user6,-0.2066633552312851,-0.1026209369301796,0.015581514686346054,-0.13057516515254974,0.12088267505168915,-0.022384842857718468,-0.054735928773880005,0.07198040187358856,-0.1113680750131607,-0.10504724830389023,-0.20769551396369934,0.0351560041308403,0.07001563161611557,0.25531041622161865,0.01753791980445385,-0.06346514075994492,-0.009000099264085293,-0.21862874925136566,-0.24768008291721344,0.09070047736167908,-0.06025604158639908,-0.029226943850517273,0.1517297923564911,-0.19855807721614838,0.022682422772049904,-0.06482333689928055,0.09921751916408539,-0.04780475050210953,-0.12532347440719604,0.00996431801468134,0.10759515315294266,0.0025089962873607874,-0.0018521277233958244,-0.10966254770755768,0.051833249628543854,0.027267375960946083,0.03301912546157837,0.1748349964618683,0.03065142221748829,0.09284926950931549,-0.12985040247440338,-0.032551996409893036,-0.1223347932100296,0.008783236145973206,0.0023704213090240955,-0.1577860563993454,-0.06510467827320099,0.10706526786088943,-0.13359461724758148,-0.041577212512493134,0.024863766506314278,0.08140569925308228,-0.04377228766679764,0.0221506766974926,0.018000315874814987,0.010335095226764679,0.08710960298776627,0.04368247836828232,-0.04067924618721008,0.04133857414126396,-0.02330779656767845,0.004473479464650154,-0.14988018572330475,-0.09489292651414871,-0.14537636935710907,0.28045329451560974,0.03452840819954872,0.09364520758390427,0.11754663288593292,0.06277789175510406,-0.2085573673248291,0.05648931860923767,0.10048296302556992,-0.09751773625612259,-0.03259195387363434,0.010054313577711582,-0.020919667556881905,-0.1426369994878769,-0.021147802472114563,0.1389889419078827,-0.06627179682254791,-0.2330755740404129,0.03721745312213898,-0.2016117423772812,0.005173537414520979,0.0037349204067140818,-0.13454867899417877,0.03975434973835945,-0.04387621954083443,0.00802577380090952,0.07383976876735687,0.1338086724281311,0.0738382488489151,-0.017687248066067696,0.06751884520053864,0.1489679366350174,-0.057078342884778976,-0.06776058673858643,-0.019404226914048195,-0.007730475161224604,0.03385128080844879,0.024832550436258316,0.19459442794322968,-0.1201372966170311,-0.14121803641319275,-0.05130781605839729,0.08826382458209991,-0.17043888568878174,0.0666261613368988,0.09417688101530075,-0.0866687148809433,-0.014999930746853352,-0.17991046607494354,-0.021368108689785004,-0.00832401029765606,0.24816828966140747,0.20115996897220612,-0.07305701822042465,0.07471849769353867,-0.04269639775156975,0.05896909162402153,0.10153356194496155,0.13961370289325714,-0.08442068099975586,0.08416243642568588,0.11968059837818146,0.00015854682715144008,0.12172288447618484
user3,-0.19351822137832642,-0.11654294282197952,0.017342843115329742,-0.13021650910377502,0.1305239349603653,-0.02620597742497921,-0.035237208008766174,0.08006056398153305,-0.11111912876367569,-0.11100179702043533,-0.2022910714149475,0.031069114804267883,0.0814213976264,0.2529941499233246,0.00712029030546546,-0.06748948991298676,-0.028741085901856422,-0.233719602227211,-0.22657571732997894,0.10331114381551743,-0.06379988044500351,-0.030453873798251152,0.15879946947097778,-0.19430115818977356,0.02313576638698578,-0.06254079937934875,0.09110753983259201,-0.04257373511791229,-0.12088871747255325,0.0069363657385110855,0.10144244134426117,-0.0018883059965446591,0.003841552184894681,-0.12022308260202408,0.04755319282412529,0.025653082877397537,0.03809339180588722,0.19483615458011627,0.020506948232650757,0.09637310355901718,-0.13088659942150116,-0.034425508230924606,-0.11936964094638824,0.013608602806925774,0.013321528211236,-0.1523006707429886,-0.06029451638460159,0.11155058443546295,-0.12390372157096863,-0.05089045688509941,0.03656825050711632,0.08895476907491684,-0.05787982419133186,0.013064521364867687,0.027245430275797844,0.011240829713642597,0.08549841493368149,0.03043430857360363,-0.022038377821445465,0.06573277711868286,-0.041025422513484955,0.014421790838241577,-0.14464275538921356,-0.09384170919656754,-0.14856550097465515,0.2704889178276062,0.020639704540371895,0.09243840724229813,0.1129869595170021,0.06179326772689819,-0.1851767748594284,0.06994302570819855,0.0894249901175499,-0.10435239970684052,-0.012029370293021202,0.014752449467778206,-0.016862571239471436,-0.15085645020008087,-0.022053610533475876,0.15102331340312958,-0.054858360439538956,-0.21967807412147522,0.0457027293741703,-0.18464922904968262,0.004229594487696886,-0.0005172543460503221,-0.11365305632352829,0.04439491778612137,-0.05648840591311455,0.0006294021150097251,0.0884949192404747,0.13762930035591125,0.0816444531083107,-0.026278965175151825,0.06649868190288544,0.1481124311685562,-0.0625261515378952,-0.0790821760892868,-0.02113051898777485,-0.003399856621399522,0.03299881890416145,0.02604415826499462,0.18226078152656555,-0.12927059829235077,-0.1424190104007721,-0.056587427854537964,0.08597356081008911,-0.17476816475391388,0.05797673389315605,0.09502611309289932,-0.09075909852981567,-0.030884433537721634,-0.18027237057685852,0.0051608337089419365,-0.0020943835843354464,0.2378244698047638,0.22221635282039642,-0.09010724723339081,0.06849891692399979,-0.0371302030980587,0.06264777481555939,0.10048483312129974,0.15552744269371033,-0.09076667577028275,0.10157466679811478,0.10006171464920044,0.019680263474583626,0.12451454252004623
user1,-0.22465355694293976,-0.11930449306964874,0.027127742767333984,-0.1552346646785736,0.09480111300945282,-0.0065851579420268536,-0.04969143122434616,0.0800570696592331,-0.10227249562740326,-0.0712708979845047,-0.20328430831432343,0.03335272893309593,0.04099949449300766,0.2867884933948517,0.011330896988511086,-0.0895317867398262,-0.0034021984320133924,-0.216065913438797,-0.23379231989383698,0.07238940894603729,-0.03928336128592491,-0.018004802986979485,0.14267170429229736,-0.21747349202632904,0.026040412485599518,-0.048842981457710266,0.09912675619125366,-0.05724361911416054,-0.12384586036205292,0.012905705720186234,0.10871593654155731,-0.0031659454107284546,-0.007226066198199987,-0.08023310452699661,0.06438837200403214,0.030187761411070824,0.011214624159038067,0.16313087940216064,0.03027816116809845,0.07279974967241287,-0.1232227012515068,-0.003710104152560234,-0.103748619556427,0.023603718727827072,-0.02507108822464943,-0.1333649903535843,-0.06562621146440506,0.11802664399147034,-0.1308802217245102,0.0016704797744750977,-0.0060285297222435474,0.0524374321103096,-0.05883160978555679,0.042080432176589966,-0.009596097283065319,-0.00018707677372731268,0.09095563739538193,0.030580824241042137,-0.05252956226468086,0.00935497134923935,-0.015438391827046871,-0.0003580921911634505,-0.14238795638084412,-0.09697183966636658,-0.13962633907794952,0.28390246629714966,0.03290637210011482,0.12181688845157623,0.12056630104780197,0.06573966145515442,-0.24004659056663513,0.0229521244764328,0.128065824508667,-0.10207634419202805,-0.054328907281160355,0.02385275438427925,-0.010609575547277927,-0.1551748514175415,-0.0158996619284153,0.12209012359380722,-0.06208093464374542,-0.2573472261428833,0.033376485109329224,-0.2342158854007721,-0.021788224577903748,0.04046397656202316,-0.14969581365585327,0.07050696015357971,-0.006454316433519125,0.0028002490289509296,0.0593961738049984,0.1211501806974411,0.06359628587961197,-0.03169574961066246,0.06472965329885483,0.11285090446472168,-0.05814961716532707,-0.030824441462755203,0.004000750370323658,-0.015004709362983704,0.03546822816133499,0.0631854310631752,0.2311798483133316,-0.09939026087522507,-0.14305564761161804,-0.057121388614177704,0.0767877995967865,-0.17341309785842896,0.06992415338754654,0.07605213671922684,-0.07884109765291214,-0.0020164616871625185,-0.19091685116291046,-0.030801812186837196,-0.025792362168431282,0.24557577073574066,0.19809457659721375,-0.03153159096837044,0.08551126718521118,-0.06687197089195251,0.06812337040901184,0.11071040481328964,0.09665998816490173,-0.09484990686178207,0.06743331998586655,0.13939888775348663,-0.011538723483681679,0.12141134589910507
user4,-0.21552212536334991,-0.10555291175842285,0.008221976459026337,-0.13829168677330017,0.12412289530038834,-0.03128749504685402,-0.04798760637640953,0.06806104630231857,-0.11647929251194,-0.10936172306537628,-0.21059231460094452,0.03505543991923332,0.06474453955888748,0.24324487149715424,0.02366587147116661,-0.07304969429969788,-0.014407332986593246,-0.22951765358448029,-0.2355434000492096,0.08540336787700653,-0.05016007646918297,-0.029526131227612495,0.1610233038663864,-0.1861555129289627,0.019049104303121567,-0.0705987960100174,0.07579012960195541,-0.050218455493450165,-0.11869632452726364,-0.008596454747021198,0.10368061065673828,-0.007268077228218317,-0.007666218094527721,-0.124500572681427,0.041147343814373016,0.004231209401041269,0.036473389714956284,0.18426646292209625,0.02910873480141163,0.09228356927633286,-0.14011652767658234,-0.020533287897706032,-0.10925419628620148,0.025409076362848282,0.013370094820857048,-0.150990828871727,-0.06903893500566483,0.11395573616027832,-0.14018036425113678,-0.034048229455947876,0.01698162406682968,0.08400794863700867,-0.05093665048480034,0.021728191524744034,0.026885341852903366,0.013271787203848362,0.07715452462434769,0.03059920109808445,-0.04665803909301758,0.05196163430809975,-0.029185308143496513,0.029569387435913086,-0.14209748804569244,-0.0977802723646164,-0.13391846418380737,0.28733110427856445,0.03840991109609604,0.07855311781167984,0.10537753999233246,0.06702212989330292,-0.19155633449554443,0.05583473667502403,0.10113018751144409,-0.08847640454769135,-0.0237045269459486,0.013950787484645844,-0.018562594428658485,-0.1423916518688202,-0.018921490758657455,0.14737366139888763,-0.052802883088588715,-0.22743524610996246,0.04426600784063339,-0.18965551257133484,0.0017129529733210802,0.00928872637450695,-0.11871828138828278,0.03582613915205002,-0.04924369603395462,0.004319570492953062,0.08903925120830536,0.13433276116847992,0.060508690774440765,-0.027116451412439346,0.060358550399541855,0.14083319902420044,-0.057642240077257156,-0.09047389030456543,-0.004980896133929491,-0.011823047883808613,0.035299304872751236,0.021475108340382576,0.19834385812282562,-0.13478153944015503,-0.12617629766464233,-0.05713270977139473,0.07903367280960083,-0.16599008440971375,0.04707731679081917,0.09491360932588577,-0.08658723533153534,-0.015537379309535027,-0.16861723363399506,-0.003318868577480316,-0.007927270606160164,0.24966078996658325,0.20334944128990173,-0.06934274733066559,0.08182401955127716,-0.029789721593260765,0.06567980349063873,0.10496488958597183,0.14868196845054626,-0.10289452970027924,0.09508012980222702,0.10238496214151382,0.02074127458035946,0.13050229847431183
user2,-0.22058996558189392,-0.11351501941680908,0.021354926750063896,-0.15813632309436798,0.11481010168790817,-0.022944705560803413,-0.04062742367386818,0.0882406011223793,-0.10967813432216644,-0.09223823994398117,-0.20835407078266144,0.04354770481586456,0.053979117423295975,0.27005210518836975,0.003715178230777383,-0.0714121162891388,0.0074522048234939575,-0.2220911681652069,-0.2423059344291687,0.09427039325237274,-0.04912718012928963,-0.027445446699857712,0.16340094804763794,-0.2065085470676422,0.016275491565465927,-0.06107185035943985,0.08789074420928955,-0.05329155921936035,-0.1260751634836197,0.005545692052692175,0.10176102072000504,-0.01329838577657938,0.004942199680954218,-0.10130275785923004,0.05843792483210564,0.013223434798419476,0.021990638226270676,0.16014030575752258,0.03764869272708893,0.08144839853048325,-0.12492701411247253,-0.01418511476367712,-0.11760261654853821,0.012462053447961807,-0.0016576239140704274,-0.1363399475812912,-0.07049189507961273,0.10499075800180435,-0.14767757058143616,-0.015339379198849201,0.008870617486536503,0.06979554146528244,-0.04338419437408447,0.025696387514472008,0.009263926185667515,-0.0036273039877414703,0.08392844349145889,0.0326310433447361,-0.042941879481077194,0.021177034825086594,-0.01634061709046364,0.0019433539127930999,-0.13201123476028442,-0.08918124437332153,-0.13782638311386108,0.27896639704704285,0.03533853590488434,0.10386201739311218,0.12660053372383118,0.06939049065113068,-0.22450116276741028,0.03397213667631149,0.11301609128713608,-0.10564272105693817,-0.03531002625823021,0.010900630615651608,-0.0028445532079786062,-0.15571698546409607,-0.020881351083517075,0.1170879527926445,-0.057642724364995956,-0.24520419538021088,0.030618689954280853,-0.2146226316690445,-0.004896487575024366,0.03861825168132782,-0.13839320838451385,0.04769108444452286,-0.028134962543845177,-0.003469918156042695,0.06894967705011368,0.12943385541439056,0.06932089477777481,-0.015504641458392143,0.06403452903032303,0.1181262880563736,-0.057139113545417786,-0.05910665541887283,0.005319193005561829,-0.01161431148648262,0.02372063137590885,0.03733038529753685,0.22081105411052704,-0.12310708314180374,-0.1374366134405136,-0.050552841275930405,0.06940992176532745,-0.16306403279304504,0.05822526291012764,0.0822373479604721,-0.07993342727422714,0.0034518176689743996,-0.17689336836338043,-0.026802778244018555,-0.02490614354610443,0.24404887855052948,0.1978311985731125,-0.04314633458852768,0.07183864712715149,-0.0549713559448719,0.06791850179433823,0.09908189624547958,0.12001574039459229,-0.09053118526935577,0.08679905533790588,0.12766920030117035,-0.004357059020549059,0.11914099007844925
user5,-0.21409529447555542,-0.11606425046920776,0.010257174260914326,-0.14339688420295715,0.135339617729187,-0.025647899135947227,-0.03710940107703209,0.08125905692577362,-0.12240318953990936,-0.10142556577920914,-0.20615099370479584,0.031749237328767776,0.06554859131574631,0.24865040183067322,0.0042085773311555386,-0.07497819513082504,-0.020143495872616768,-0.24616670608520508,-0.23313957452774048,0.09955796599388123,-0.042551297694444656,-0.029752681031823158,0.1711006909608841,-0.18821105360984802,0.013423963449895382,-0.06759215146303177,0.07481962442398071,-0.02936852164566517,-0.11190914362668991,-0.011021648533642292,0.10651442408561707,-0.02274542674422264,-0.007739486172795296,-0.12470763921737671,0.03960460051894188,0.00826867576688528,0.04266390949487686,0.19260473549365997,0.036993976682424545,0.08650866150856018,-0.14345143735408783,-0.015027456916868687,-0.11543942242860794,0.029855472967028618,0.02132386527955532,-0.1416364461183548,-0.05330274626612663,0.11262870579957962,-0.1383485496044159,-0.0390406996011734,0.029479684308171272,0.08255068212747574,-0.05898062139749527,0.02356577105820179,0.026352323591709137,0.011217808350920677,0.08772053569555283,0.032470766454935074,-0.030846698209643364,0.06497500091791153,-0.030383775010704994,0.034378115087747574,-0.13500387966632843,-0.09129656106233597,-0.14514389634132385,0.27610641717910767,0.028211507946252823,0.08687904477119446,0.11062885820865631,0.059535980224609375,-0.17991361021995544,0.0725998654961586,0.09302525222301483,-0.09756062924861908,-0.005607329308986664,0.014972614124417305,-0.0032715958077460527,-0.1575363278388977,-0.03158903867006302,0.1474902480840683,-0.056267231702804565,-0.22548674046993256,0.03654574230313301,-0.1787174493074417,0.00821764674037695,0.01714656688272953,-0.1103329062461853,0.03350723534822464,-0.05751337483525276,0.005703367292881012,0.0912303701043129,0.14062941074371338,0.067667655646801,-0.018812382593750954,0.05639103800058365,0.14181968569755554,-0.06760861724615097,-0.08538088202476501,-0.015849526971578598,-0.01754099316895008,0.03163836896419525,0.029691336676478386,0.18915553390979767,-0.13262343406677246,-0.13302567601203918,-0.05775046721100807,0.08296239376068115,-0.16692249476909637,0.051768604665994644,0.08491583168506622,-0.09346123039722443,-0.014001293107867241,-0.17487822473049164,0.004514650441706181,-0.023190651088953018,0.24916388094425201,0.20959417521953583,-0.07855664938688278,0.07373925298452377,-0.033979423344135284,0.06651631742715836,0.09729380905628204,0.1540715992450714,-0.10245611518621445,0.10065432637929916,0.1028495505452156,0.03155000880360603,0.11564455926418304
