,0,1,2,3,4,5,6,7,8,9,10,11,12,13,14,15,16,17,18,19,20,21,22,23,24,25,26,27,28,29,30,31,32,33,34,35,36,37,38,39,40,41,42,43,44,45,46,47,48,49,50,51,52,53,54,55,56,57,58,59,60,61,62,63,64,65,66,67,68,69,70,71,72,73,74,75,76,77,78,79,80,81,82,83,84,85,86,87,88,89,90,91,92,93,94,95,96,97,98,99,100,101,102,103,104,105,106,107,108,109,110,111,112,113,114,115,116,117,118,119,120,121,122,123,124,125,126,127
user1,0.2671821117401123,-0.13441994786262512,0.15015535056591034,-0.05624474212527275,-0.0788658931851387,0.032234787940979004,-0.27351114153862,0.21935899555683136,0.0889720544219017,-0.3075765371322632,0.005837016738951206,-0.04730401933193207,-0.07148531079292297,0.21283192932605743,0.20635652542114258,0.010068060830235481,0.010459617711603642,0.051695313304662704,0.11414635181427002,0.36472898721694946,-0.0896657183766365,-0.1633136123418808,0.05905184522271156,0.16836033761501312,-0.03641830012202263,0.10022585839033127,0.10797592252492905,-0.09189929068088531,-0.03517593815922737,-0.056580353528261185,0.10055100172758102,0.03132069483399391,-0.2152111828327179,0.049305640161037445,-0.04690416157245636,0.012444370426237583,0.1175605058670044,0.006670723669230938,0.1482999324798584,-0.08686104416847229,0.08973688632249832,-0.07878214120864868,-0.08122376352548599,0.007359757553786039,0.019808778539299965,0.11368972808122635,-0.034072861075401306,-0.21411506831645966,-0.0719432458281517,0.14409267902374268,-0.04642314091324806,0.03797154873609543,0.1308521032333374,-0.17479801177978516,-0.01681206189095974,-0.06193886324763298,0.23428498208522797,0.01729356124997139,0.015559886582195759,0.0012194140581414104,-0.14792166650295258,0.35029834508895874,0.07526456564664841,0.0669715628027916,-0.06885631382465363,0.0823947861790657,0.11029451340436935,-0.17509222030639648,0.011379124596714973,-0.037909556180238724,-0.00592433987185359,0.031250957399606705,0.14451353251934052,-0.15901096165180206,0.16662274301052094,0.058370571583509445,0.05484359711408615,0.07060366123914719,-0.07339576631784439,0.02152179554104805,-0.030407428741455078,-0.18585370481014252,0.05418124422430992,0.14428432285785675,0.05237690359354019,0.007239098194986582,-0.14131996035575867,-0.2854387164115906,0.08513586968183517,-0.07633517682552338,0.2541094124317169,-0.07228453457355499,-0.00618608808144927,0.16384169459342957,0.03465869650244713,-0.08860484510660172,0.0035890296567231417,0.31755271553993225,0.09423476457595825,-0.008754052221775055,0.27718693017959595,-0.0061389678157866,-0.11659222841262817,-0.019994964823126793,0.17612527310848236,0.11976412683725357,-0.10062163323163986,0.04931216314435005,0.10157283395528793,0.018623923882842064,0.024379391223192215,-0.08041457086801529,0.16860094666481018,0.04203866422176361,0.24092604219913483,-0.009921889752149582,0.004070048686116934,-0.025911038741469383,-0.10569454729557037,0.02544158138334751,0.2817956507205963,-0.03254662826657295,0.07513061165809631,0.18732845783233643,0.09289572387933731,-0.14277176558971405,-0.025049179792404175,-0.12716588377952576
user6,0.25233808159828186,-0.12438156455755234,0.14191541075706482,-0.04811960458755493,-0.07544612139463425,0.032132573425769806,-0.25504443049430847,0.20766082406044006,0.08006394654512405,-0.28612011671066284,0.008754977956414223,-0.04482964798808098,-0.07308651506900787,0.19946518540382385,0.20256593823432922,0.004010761622339487,0.004176368471235037,0.05264723673462868,0.11467089504003525,0.34421396255493164,-0.08276350796222687,-0.14978671073913574,0.05814315751194954,0.16438938677310944,-0.038227178156375885,0.09758781641721725,0.10572388023138046,-0.08618002384901047,-0.033603399991989136,-0.05234765261411667,0.09222764521837234,0.027722083032131195,-0.20090138912200928,0.04399850592017174,-0.04642988741397858,0.0074310703203082085,0.10812561959028244,0.00656126718968153,0.14096222817897797,-0.07571625709533691,0.0840086117386818,-0.07603919506072998,-0.07761723548173904,0.005338370334357023,0.021064119413495064,0.1086161881685257,-0.027139931917190552,-0.20267240703105927,-0.07017968595027924,0.1343952715396881,-0.037472181022167206,0.037561602890491486,0.12333375960588455,-0.16991975903511047,-0.01732565276324749,-0.05943053588271141,0.22915253043174744,0.017037510871887207,0.01462150365114212,0.0029841887298971415,-0.14328952133655548,0.3311462700366974,0.06900705397129059,0.0625593438744545,-0.06066408008337021,0.08469075709581375,0.10432879626750946,-0.1617099940776825,0.010810164734721184,-0.039848193526268005,-0.010364865884184837,0.024796554818749428,0.13573125004768372,-0.1522391140460968,0.15998147428035736,0.05985318496823311,0.055517058819532394,0.06384323537349701,-0.06976968795061111,0.015891719609498978,-0.026368707418441772,-0.17426228523254395,0.053064994513988495,0.12958639860153198,0.04727086424827576,0.010423577390611172,-0.13188759982585907,-0.26783066987991333,0.08301115781068802,-0.069534070789814,0.23503875732421875,-0.06924604624509811,-0.0040500876493752,0.1542893648147583,0.03706889599561691,-0.08256378024816513,0.000683294958434999,0.30251026153564453,0.0867658257484436,-0.009582302533090115,0.2640065550804138,-0.007739538326859474,-0.11408038437366486,-0.020419303327798843,0.1635970026254654,0.11535196751356125,-0.09135895222425461,0.049177318811416626,0.09677527099847794,0.023176660761237144,0.0222382303327322,-0.08092920482158661,0.1626645177602768,0.04526593163609505,0.23352986574172974,-0.007720152847468853,-1.2902934940939303e-05,-0.025028260424733162,-0.09957944601774216,0.029983937740325928,0.26923227310180664,-0.0283706896007061,0.06927644461393356,0.18093283474445343,0.09350709617137909,-0.13296493887901306,-0.025568120181560516,-0.12060602009296417
user2,0.2594631612300873,-0.1316034197807312,0.1481538861989975,-0.053829699754714966,-0.08091495931148529,0.03238531947135925,-0.2689101994037628,0.21589341759681702,0.09037164598703384,-0.2983202636241913,0.005172618664801121,-0.0487731471657753,-0.07437993586063385,0.20395928621292114,0.2044491022825241,0.010603837668895721,0.005257453769445419,0.05793476104736328,0.11320769786834717,0.3580544888973236,-0.08627436310052872,-0.15915939211845398,0.05795792490243912,0.16537630558013916,-0.03475792706012726,0.10276787728071213,0.10756879299879074,-0.08536439388990402,-0.03394927456974983,-0.053608886897563934,0.09662169963121414,0.03536391258239746,-0.21166102588176727,0.0463126040995121,-0.04565729200839996,0.014079801738262177,0.11648578941822052,0.013308585621416569,0.14150145649909973,-0.08462043106555939,0.0845283791422844,-0.08257976174354553,-0.08471102267503738,0.005179148633033037,0.017825331538915634,0.10818503797054291,-0.03404144197702408,-0.20584124326705933,-0.07415934652090073,0.1405269056558609,-0.046251531690359116,0.03713454678654671,0.13233442604541779,-0.17273099720478058,-0.01848360151052475,-0.05789715424180031,0.2325587421655655,0.021126791834831238,0.019493458792567253,-0.00013557562488131225,-0.14452844858169556,0.34546926617622375,0.07100196927785873,0.06540103256702423,-0.06483574956655502,0.08293849229812622,0.11095517128705978,-0.17351485788822174,0.008541100658476353,-0.0365954227745533,-0.010464493185281754,0.0288762915879488,0.13408929109573364,-0.16049756109714508,0.164540097117424,0.055112406611442566,0.052997902035713196,0.06405045837163925,-0.06771445274353027,0.019092386588454247,-0.02824835665524006,-0.18540027737617493,0.05353531613945961,0.13801880180835724,0.055156249552965164,0.005160771310329437,-0.14459295570850372,-0.28119027614593506,0.0801280066370964,-0.07550819963216782,0.24865998327732086,-0.06873264163732529,-0.009093104861676693,0.15725351870059967,0.03439423069357872,-0.09378983080387115,0.004580080509185791,0.3101329207420349,0.09268610924482346,-0.0039080409333109856,0.27168703079223633,-0.007697742898017168,-0.11541645973920822,-0.02263844758272171,0.17359204590320587,0.1205376535654068,-0.09771008789539337,0.043631311506032944,0.10172761976718903,0.013588191010057926,0.023356830701231956,-0.08233290910720825,0.1632552593946457,0.04418884217739105,0.2404595911502838,-0.00590027729049325,0.002885036636143923,-0.027691757306456566,-0.10561308264732361,0.031874675303697586,0.2799588739871979,-0.02962149679660797,0.0761738121509552,0.19038718938827515,0.09787517786026001,-0.1393682211637497,-0.028313200920820236,-0.12700393795967102
user4,0.24955622851848602,-0.12193448841571808,0.13565632700920105,-0.05300178378820419,-0.0734449177980423,0.03422122821211815,-0.25361356139183044,0.20958544313907623,0.08519919961690903,-0.28985682129859924,0.0078224902972579,-0.04335467517375946,-0.06678543984889984,0.19337861239910126,0.19450530409812927,0.007283210288733244,0.004489256534725428,0.055510591715574265,0.11206140369176865,0.3447573184967041,-0.08679147809743881,-0.14972268044948578,0.05120297521352768,0.16005685925483704,-0.037093713879585266,0.09375738352537155,0.10301583260297775,-0.08465992659330368,-0.038574449717998505,-0.05691757798194885,0.09304659813642502,0.031934622675180435,-0.20234790444374084,0.04131605848670006,-0.041467394679784775,0.014751231297850609,0.11136908084154129,0.0062927366234362125,0.13862639665603638,-0.08203990012407303,0.07970995455980301,-0.077757328748703,-0.08252734690904617,0.0012248418061062694,0.018530692905187607,0.10407603532075882,-0.03330336511135101,-0.20297470688819885,-0.07038094848394394,0.13981224596500397,-0.043179772794246674,0.032922208309173584,0.12454430013895035,-0.16658015549182892,-0.02077423967421055,-0.05654025822877884,0.22178201377391815,0.022136416286230087,0.019333332777023315,0.0015887769404798746,-0.14154817163944244,0.33114394545555115,0.06766857206821442,0.06493613868951797,-0.0682600811123848,0.08344189822673798,0.10547299683094025,-0.16399873793125153,0.00796311255544424,-0.03956710174679756,-0.009041664190590382,0.025985626503825188,0.13501854240894318,-0.15148597955703735,0.16310928761959076,0.05600870028138161,0.05294902250170708,0.06044923886656761,-0.06532269716262817,0.018591875210404396,-0.02749231457710266,-0.17580963671207428,0.05077685788273811,0.13316316902637482,0.049620192497968674,0.009470942430198193,-0.13774515688419342,-0.2667442560195923,0.07684855163097382,-0.07531343400478363,0.2399085909128189,-0.06881001591682434,-0.004505502060055733,0.15683452785015106,0.036564458161592484,-0.08787523955106735,-0.001226712018251419,0.3018512725830078,0.09080613404512405,-0.008650057017803192,0.2599736750125885,-0.004160446114838123,-0.1151520311832428,-0.016863292083144188,0.16425597667694092,0.1126086562871933,-0.09256533533334732,0.04039786010980606,0.09311215579509735,0.014922501519322395,0.023704707622528076,-0.08094385266304016,0.16026683151721954,0.04224398732185364,0.2276802510023117,-0.006906601600348949,-0.0015454196836799383,-0.02282465063035488,-0.10205066204071045,0.03003457933664322,0.2688797116279602,-0.02608022838830948,0.07397766411304474,0.18247883021831512,0.0910094603896141,-0.13570912182331085,-0.02394317090511322,-0.12098221480846405
user3,0.27441808581352234,-0.12922519445419312,0.15203893184661865,-0.05281122028827667,-0.07770352065563202,0.0339525043964386,-0.2772276997566223,0.21967783570289612,0.0911613404750824,-0.31418049335479736,0.00421746913343668,-0.04182416945695877,-0.07520177960395813,0.20961464941501617,0.21547530591487885,0.010767441242933273,0.011946757324039936,0.058669064193964005,0.11620176583528519,0.36492976546287537,-0.09298297017812729,-0.16552454233169556,0.06255447119474411,0.17360541224479675,-0.042889975011348724,0.09850876778364182,0.10320763289928436,-0.09302199631929398,-0.03908688202500343,-0.057541631162166595,0.10447882860898972,0.031446751207113266,-0.21411465108394623,0.052706483751535416,-0.04866744205355644,0.012397641316056252,0.12073375284671783,0.01025152113288641,0.15308508276939392,-0.08296483755111694,0.09103716909885406,-0.08327049762010574,-0.08417341113090515,0.008040430955588818,0.015471883118152618,0.1208605095744133,-0.0314301960170269,-0.21491403877735138,-0.07249510288238525,0.14418819546699524,-0.04322049766778946,0.035710409283638,0.13036562502384186,-0.17729461193084717,-0.024023720994591713,-0.062276441603899,0.24109527468681335,0.02268938533961773,0.021667417138814926,0.007011013571172953,-0.1532532125711441,0.35236799716949463,0.07631495594978333,0.06470905989408493,-0.06893309950828552,0.08521631360054016,0.10773903131484985,-0.17993633449077606,0.01471150666475296,-0.041852742433547974,-0.011707068420946598,0.02795855514705181,0.1428382843732834,-0.1593010574579239,0.17236924171447754,0.06382303684949875,0.06079331040382385,0.06840351969003677,-0.07198968529701233,0.017292417585849762,-0.02388383075594902,-0.18557259440422058,0.061154574155807495,0.14583419263362885,0.0501103475689888,0.008648304268717766,-0.14563800394535065,-0.2905324101448059,0.08839317411184311,-0.07767672836780548,0.2513476014137268,-0.07455703616142273,-0.010987191461026669,0.1673218160867691,0.03508956730365753,-0.0947837382555008,-0.0016363074537366629,0.3231530785560608,0.09846149384975433,-0.0027463382575660944,0.2809174358844757,-0.006020091939717531,-0.1157628670334816,-0.018223952502012253,0.1766004115343094,0.12475033849477768,-0.09586907178163528,0.053404249250888824,0.10452622175216675,0.019457202404737473,0.027048351243138313,-0.0845867320895195,0.17026391625404358,0.048551421612501144,0.24918542802333832,-0.0027387479785829782,-0.0030166187789291143,-0.02813802845776081,-0.10397130995988846,0.031802061945199966,0.29048657417297363,-0.0265206228941679,0.07761689275503159,0.19107884168624878,0.09002508968114853,-0.14848445355892181,-0.025210585445165634,-0.12395738810300827
user5,0.268005907535553,-0.13513199985027313,0.1518654227256775,-0.05530340597033501,-0.08275064080953598,0.037510354071855545,-0.27567845582962036,0.2174091339111328,0.0906173437833786,-0.3091541528701782,0.008392713032662868,-0.05009936913847923,-0.07209356129169464,0.21437959372997284,0.2113453894853592,0.004982914309948683,0.0034330023918300867,0.0553143210709095,0.11781538277864456,0.365040123462677,-0.09123460203409195,-0.16161102056503296,0.06385713815689087,0.17279650270938873,-0.038868363946676254,0.10390787571668625,0.11065824329853058,-0.09371902048587799,-0.03575874865055084,-0.061322733759880066,0.10047192126512527,0.03557288646697998,-0.21348650753498077,0.04558514058589935,-0.051081884652376175,0.012271515093743801,0.1185450404882431,0.013731012120842934,0.15046650171279907,-0.08189649134874344,0.08822527527809143,-0.08332035690546036,-0.08077141642570496,0.007591773755848408,0.022155603393912315,0.11966744065284729,-0.029533732682466507,-0.21698132157325745,-0.07881318032741547,0.14269885420799255,-0.04657961055636406,0.03409970924258232,0.12919981777668,-0.17762231826782227,-0.02329329587519169,-0.06078729033470154,0.2394324243068695,0.019783997908234596,0.017530357465147972,0.004413570277392864,-0.1498461663722992,0.3498280644416809,0.07038316130638123,0.06645438820123672,-0.06541219353675842,0.08641018718481064,0.10972680896520615,-0.1761329025030136,0.012227587401866913,-0.041963592171669006,-0.0062529705464839935,0.0278680007904768,0.14195163547992706,-0.16628926992416382,0.1727817803621292,0.05683649331331253,0.06025240570306778,0.06857243180274963,-0.07389127463102341,0.021716946735978127,-0.031119750812649727,-0.1902168244123459,0.054793424904346466,0.14365893602371216,0.05393245443701744,0.006895715370774269,-0.14454913139343262,-0.28868722915649414,0.08305289596319199,-0.0792006328701973,0.25434455275535583,-0.06943372637033463,-0.010243304073810577,0.1660684198141098,0.03612456098198891,-0.09158425778150558,-0.002252613427117467,0.3219227194786072,0.09691071510314941,-0.004210343584418297,0.27787280082702637,-0.00442444859072566,-0.1207495927810669,-0.01762431487441063,0.179996058344841,0.11987128108739853,-0.10131518542766571,0.049928564578294754,0.10320896655321121,0.017622798681259155,0.02455117180943489,-0.08534671366214752,0.17016804218292236,0.04250060021877289,0.24612388014793396,-0.009297945536673069,0.00040464670746587217,-0.03226285055279732,-0.10620534420013428,0.026100141927599907,0.2893930673599243,-0.03359948471188545,0.07890032976865768,0.19016501307487488,0.09882721304893494,-0.14607617259025574,-0.027606258168816566,-0.1271037757396698
